svm_type c_svc
kernel_type rbf
gamma 0.00012207
nr_class 2
total_sv 5532
rho -18.3893
label 0 1
nr_sv 2766 2766
SV
2048 1:0.481765 2:0.480884 
2048 1:0.481765 2:0.480884 
2048 1:0.827255 2:0.826961 
2048 1:0.827255 2:0.826961 
2048 1:0.193857 2:0.192486 
2048 1:0.481765 2:0.480884 
2048 1:0.539347 2:0.538563 
2048 1:0.251439 2:0.250165 
2048 1:0.309021 2:0.307845 
2048 1:0.712092 2:0.711602 
2048 1:0.251439 2:0.250165 
2048 1:0.481765 2:0.480884 
2048 1:0.309021 2:0.307845 
2048 1:0.769674 2:0.769282 
2048 1:0.712092 2:0.711602 
2048 1:0.596929 2:0.596243 
2048 1:0.596929 2:0.596243 
2048 1:0.539347 2:0.538563 
2048 1:0.539347 2:0.538563 
2048 1:0.481765 2:0.480884 
2048 1:0.712092 2:0.711602 
2048 1:0.481765 2:0.480884 
2048 1:0.712092 2:0.711602 
2048 1:0.712092 2:0.711602 
2048 1:0.712092 2:0.711602 
2048 1:0.539347 2:0.538563 
2048 1:0.596929 2:0.596243 
2048 1:0.65451 2:0.653922 
2048 1:0.769674 2:0.769282 
2048 1:0.827255 2:0.826961 
2048 1:0.769674 2:0.769282 
2048 1:0.65451 2:0.653922 
2048 1:0.366602 2:0.365524 
2048 1:0.539347 2:0.538563 
2048 1:0.827255 2:0.826961 
2048 1:0.481765 2:0.480884 
2048 1:0.309021 2:0.307845 
2048 1:0.596929 2:0.596243 
2048 1:0.769674 2:0.769282 
2048 1:0.827255 2:0.826961 
2048 1:0.366602 2:0.365524 
2048 1:0.596929 2:0.596243 
2048 1:0.827255 2:0.826961 
2048 1:0.481765 2:0.480884 
2048 1:0.65451 2:0.653922 
2048 1:0.481765 2:0.480884 
2048 1:0.827255 2:0.826961 
2048 1:0.827255 2:0.826961 
2048 1:0.596929 2:0.596243 
2048 1:0.539347 2:0.538563 
2048 1:0.481765 2:0.480884 
2048 1:0.596929 2:0.596243 
2048 1:0.0786941 2:0.0771264 
2048 1:0.827255 2:0.826961 
2048 1:0.596929 2:0.596243 
2048 1:0.712092 2:0.711602 
2048 1:0.539347 2:0.538563 
2048 1:0.596929 2:0.596243 
2048 1:0.712092 2:0.711602 
2048 1:0.366602 2:0.365524 
2048 1:0.309021 2:0.307845 
2048 1:0.251439 2:0.250165 
2048 1:0.0786941 2:0.0771264 
2048 1:0.827255 2:0.826961 
2048 1:0.827255 2:0.826961 
2048 1:0.424184 2:0.423204 
2048 1:0.539347 2:0.538563 
2048 1:0.0786941 2:0.0771264 
2048 1:0.65451 2:0.653922 
2048 1:0.596929 2:0.596243 
2048 1:0.712092 2:0.711602 
2048 1:0.539347 2:0.538563 
2048 1:0.366602 2:0.365524 
2048 1:0.539347 2:0.538563 
2048 1:0.539347 2:0.538563 
2048 1:0.65451 2:0.653922 
2048 1:0.827255 2:0.826961 
2048 1:0.769674 2:0.769282 
2048 1:0.712092 2:0.711602 
2048 1:-0.0364691 2:-0.0382328 
2048 1:0.596929 2:0.596243 
2048 1:0.65451 2:0.653922 
2048 1:0.769674 2:0.769282 
2048 1:0.481765 2:0.480884 
2048 1:0.424184 2:0.423204 
2048 1:0.596929 2:0.596243 
2048 1:0.366602 2:0.365524 
2048 1:0.481765 2:0.480884 
2048 1:0.712092 2:0.711602 
2048 1:0.596929 2:0.596243 
2048 1:0.366602 2:0.365524 
2048 1:0.827255 2:0.826961 
2048 1:0.769674 2:0.769282 
2048 1:0.65451 2:0.653922 
2048 1:0.596929 2:0.596243 
2048 1:0.65451 2:0.653922 
2048 1:0.769674 2:0.769282 
2048 1:0.424184 2:0.423204 
2048 1:0.65451 2:0.653922 
2048 1:0.65451 2:0.653922 
2048 1:0.366602 2:0.365524 
2048 1:0.712092 2:0.711602 
2048 1:0.539347 2:0.538563 
2048 1:0.769674 2:0.769282 
2048 1:0.827255 2:0.826961 
2048 1:0.136276 2:0.134806 
2048 1:0.539347 2:0.538563 
2048 1:0.251439 2:0.250165 
2048 1:0.424184 2:0.423204 
2048 1:0.769674 2:0.769282 
2048 1:0.539347 2:0.538563 
2048 1:0.366602 2:0.365524 
2048 1:0.769674 2:0.769282 
2048 1:0.769674 2:0.769282 
2048 1:0.596929 2:0.596243 
2048 1:0.769674 2:0.769282 
2048 1:0.65451 2:0.653922 
2048 1:0.827255 2:0.826961 
2048 1:0.0786941 2:0.0771264 
2048 1:0.251439 2:0.250165 
2048 1:0.65451 2:0.653922 
2048 1:0.65451 2:0.653922 
2048 1:0.0786941 2:0.0771264 
2048 1:-0.0364691 2:-0.0382328 
2048 1:0.769674 2:0.769282 
2048 1:0.596929 2:0.596243 
2048 1:0.596929 2:0.596243 
2048 1:0.0786941 2:0.0771264 
2048 1:0.309021 2:0.307845 
2048 1:0.309021 2:0.307845 
2048 1:0.712092 2:0.711602 
2048 1:0.481765 2:0.480884 
2048 1:0.366602 2:0.365524 
2048 1:0.769674 2:0.769282 
2048 1:0.539347 2:0.538563 
2048 1:0.827255 2:0.826961 
2048 1:0.309021 2:0.307845 
2048 1:0.65451 2:0.653922 
2048 1:0.539347 2:0.538563 
2048 1:0.596929 2:0.596243 
2048 1:0.65451 2:0.653922 
2048 1:0.65451 2:0.653922 
2048 1:0.65451 2:0.653922 
2048 1:0.539347 2:0.538563 
2048 1:0.193857 2:0.192486 
2048 1:0.366602 2:0.365524 
2048 1:0.769674 2:0.769282 
2048 1:0.193857 2:0.192486 
2048 1:0.539347 2:0.538563 
2048 1:0.769674 2:0.769282 
2048 1:0.193857 2:0.192486 
2048 1:0.596929 2:0.596243 
2048 1:0.712092 2:0.711602 
2048 1:0.596929 2:0.596243 
2048 1:0.65451 2:0.653922 
2048 1:0.424184 2:0.423204 
2048 1:0.134925 2:0.137411 
2048 1:0.136276 2:0.134806 
2048 1:0.827255 2:0.826961 
2048 1:0.539347 2:0.538563 
2048 1:0.596929 2:0.596243 
2048 1:0.712092 2:0.711602 
2048 1:0.481765 2:0.480884 
2048 1:0.366602 2:0.365524 
2048 1:0.712092 2:0.711602 
2048 1:0.251439 2:0.250165 
2048 1:0.827255 2:0.826961 
2048 1:0.65451 2:0.653922 
2048 1:0.712092 2:0.711602 
2048 1:0.712092 2:0.711602 
2048 1:0.65451 2:0.653922 
2048 1:0.596929 2:0.596243 
2048 1:0.827255 2:0.826961 
2048 1:0.769674 2:0.769282 
2048 1:0.65451 2:0.653922 
2048 1:0.65451 2:0.653922 
2048 1:-0.0364691 2:-0.0382328 
2048 1:0.596929 2:0.596243 
2048 1:0.769674 2:0.769282 
2048 1:-0.65451 2:-0.653922 
2048 1:0.712092 2:0.711602 
2048 1:0.539347 2:0.538563 
2048 1:0.65451 2:0.653922 
2048 1:0.596929 2:0.596243 
2048 1:0.481765 2:0.480884 
2048 1:0.539347 2:0.538563 
2048 1:0.596929 2:0.596243 
2048 1:0.596929 2:0.596243 
2048 1:0.65451 2:0.653922 
2048 1:0.65451 2:0.653922 
2048 1:0.596929 2:0.596243 
2048 1:0.481765 2:0.480884 
2048 1:0.366602 2:0.365524 
2048 1:0.481765 2:0.480884 
2048 1:0.596929 2:0.596243 
2048 1:0.481765 2:0.480884 
2048 1:0.539347 2:0.538563 
2048 1:0.827255 2:0.826961 
2048 1:0.596929 2:0.596243 
2048 1:0.65451 2:0.653922 
2048 1:0.712092 2:0.711602 
2048 1:0.539347 2:0.538563 
2048 1:0.596929 2:0.596243 
2048 1:0.769674 2:0.769282 
2048 1:0.366602 2:0.365524 
2048 1:0.712092 2:0.711602 
2048 1:0.712092 2:0.711602 
2048 1:0.309021 2:0.307845 
2048 1:0.481765 2:0.480884 
2048 1:0.596929 2:0.596243 
2048 1:0.309021 2:0.307845 
2048 1:0.424184 2:0.423204 
2048 1:0.481765 2:0.480884 
2048 1:0.769674 2:0.769282 
2048 1:0.65451 2:0.653922 
2048 1:0.539347 2:0.538563 
2048 1:0.712092 2:0.711602 
2048 1:0.827255 2:0.826961 
2048 1:0.827255 2:0.826961 
2048 1:0.827255 2:0.826961 
2048 1:0.65451 2:0.653922 
2048 1:0.481765 2:0.480884 
2048 1:0.366602 2:0.365524 
2048 1:0.827255 2:0.826961 
2048 1:0.481765 2:0.480884 
2048 1:0.65451 2:0.653922 
2048 1:0.193857 2:0.192486 
2048 1:0.827255 2:0.826961 
2048 1:0.65451 2:0.653922 
2048 1:0.712092 2:0.711602 
2048 1:0.769674 2:0.769282 
2048 1:0.712092 2:0.711602 
2048 1:0.193857 2:0.192486 
2048 1:0.65451 2:0.653922 
2048 1:0.366602 2:0.365524 
2048 1:0.309021 2:0.307845 
2048 1:0.539347 2:0.538563 
2048 1:0.309021 2:0.307845 
2048 1:0.366602 2:0.365524 
2048 1:0.424184 2:0.423204 
2048 1:0.65451 2:0.653922 
2048 1:0.596929 2:0.596243 
2048 1:0.309021 2:0.307845 
2048 1:0.539347 2:0.538563 
2048 1:0.424184 2:0.423204 
2048 1:0.65451 2:0.653922 
2048 1:0.769674 2:0.769282 
2048 1:0.769674 2:0.769282 
2048 1:0.712092 2:0.711602 
2048 1:0.769674 2:0.769282 
2048 1:0.424184 2:0.423204 
2048 1:0.481765 2:0.480884 
2048 1:0.424184 2:0.423204 
2048 1:0.481765 2:0.480884 
2048 1:0.481765 2:0.480884 
2048 1:0.481765 2:0.480884 
2048 1:0.30767 2:0.303869 
2048 1:0.65451 2:0.653922 
2048 1:0.366602 2:0.365524 
2048 1:0.309021 2:0.307845 
2048 1:0.596929 2:0.596243 
2048 1:0.596929 2:0.596243 
2048 1:0.596929 2:0.596243 
2048 1:0.827255 2:0.826961 
2048 1:0.424184 2:0.423204 
2048 1:0.481765 2:0.480884 
2048 1:0.827255 2:0.826961 
2048 1:0.596929 2:0.596243 
2048 1:0.539347 2:0.538563 
2048 1:0.424184 2:0.423204 
2048 1:0.827255 2:0.826961 
2048 1:0.769674 2:0.769282 
2048 1:0.481765 2:0.480884 
2048 1:0.769674 2:0.769282 
2048 1:0.481765 2:0.480884 
2048 1:0.712092 2:0.711602 
2048 1:0.769674 2:0.769282 
2048 1:0.65451 2:0.653922 
2048 1:0.596929 2:0.596243 
2048 1:0.65451 2:0.653922 
2048 1:0.769674 2:0.769282 
2048 1:0.539347 2:0.538563 
2048 1:0.0211125 2:0.0194468 
2048 1:0.366602 2:0.365524 
2048 1:0.65451 2:0.653922 
2048 1:0.65451 2:0.653922 
2048 1:0.309021 2:0.307845 
2048 1:0.769674 2:0.769282 
2048 1:0.424184 2:0.423204 
2048 1:0.769674 2:0.769282 
2048 1:0.481765 2:0.480884 
2048 1:0.712092 2:0.711602 
2048 1:0.481765 2:0.480884 
2048 1:0.769674 2:0.769282 
2048 1:0.769674 2:0.769282 
2048 1:0.712092 2:0.711602 
2048 1:0.596929 2:0.596243 
2048 1:0.251439 2:0.250165 
2048 1:0.827255 2:0.826961 
2048 1:0.596929 2:0.596243 
2048 1:0.481765 2:0.480884 
2048 1:0.596929 2:0.596243 
2048 1:0.769674 2:0.769282 
2048 1:0.596929 2:0.596243 
2048 1:0.712092 2:0.711602 
2048 1:0.424184 2:0.423204 
2048 1:0.769674 2:0.769282 
2048 1:0.712092 2:0.711602 
2048 1:0.596929 2:0.596243 
2048 1:0.596929 2:0.596243 
2048 1:0.712092 2:0.711602 
2048 1:0.366602 2:0.365524 
2048 1:0.481765 2:0.480884 
2048 1:0.65451 2:0.653922 
2048 1:0.596929 2:0.596243 
2048 1:0.65451 2:0.653922 
2048 1:0.539347 2:0.538563 
2048 1:0.539347 2:0.538563 
2048 1:0.769674 2:0.769282 
2048 1:0.769674 2:0.769282 
2048 1:0.596929 2:0.596243 
2048 1:0.366602 2:0.365524 
2048 1:0.769674 2:0.769282 
2048 1:0.712092 2:0.711602 
2048 1:0.193857 2:0.192486 
2048 1:0.769674 2:0.769282 
2048 1:0.65451 2:0.653922 
2048 1:0.481765 2:0.480884 
2048 1:0.424184 2:0.423204 
2048 1:0.596929 2:0.596243 
2048 1:0.596929 2:0.596243 
2048 1:0.827255 2:0.826961 
2048 1:-0.429195 2:-0.452491 
2048 1:0.769674 2:0.769282 
2048 1:0.424184 2:0.423204 
2048 1:0.596929 2:0.596243 
2048 1:0.539347 2:0.538563 
2048 1:0.596929 2:0.596243 
2048 1:0.596929 2:0.596243 
2048 1:0.65451 2:0.653922 
2048 1:0.366602 2:0.365524 
2048 1:0.596929 2:0.596243 
2048 1:0.596929 2:0.596243 
2048 1:0.712092 2:0.711602 
2048 1:0.424184 2:0.423204 
2048 1:0.712092 2:0.711602 
2048 1:0.65451 2:0.653922 
2048 1:0.712092 2:0.711602 
2048 1:0.65451 2:0.653922 
2048 1:0.712092 2:0.711602 
2048 1:0.827255 2:0.826961 
2048 1:0.827255 2:0.826961 
2048 1:0.481765 2:0.480884 
2048 1:0.539347 2:0.538563 
2048 1:0.596929 2:0.596243 
2048 1:0.539347 2:0.538563 
2048 1:0.65451 2:0.653922 
2048 1:0.481765 2:0.480884 
2048 1:0.712092 2:0.711602 
2048 1:0.481765 2:0.480884 
2048 1:0.827255 2:0.826961 
2048 1:0.424184 2:0.423204 
2048 1:0.827255 2:0.826961 
2048 1:0.539347 2:0.538563 
2048 1:0.712092 2:0.711602 
2048 1:0.769674 2:0.769282 
2048 1:0.827255 2:0.826961 
2048 1:0.712092 2:0.711602 
2048 1:0.481765 2:0.480884 
2048 1:0.539347 2:0.538563 
2048 1:0.596929 2:0.596243 
2048 1:0.539347 2:0.538563 
2048 1:-0.151632 2:-0.153592 
2048 1:0.65451 2:0.653922 
2048 1:0.712092 2:0.711602 
2048 1:0.596929 2:0.596243 
2048 1:0.769674 2:0.769282 
2048 1:0.712092 2:0.711602 
2048 1:0.65451 2:0.653922 
2048 1:0.481765 2:0.480884 
2048 1:0.712092 2:0.711602 
2048 1:0.65451 2:0.653922 
2048 1:0.65451 2:0.653922 
2048 1:0.481765 2:0.480884 
2048 1:0.424184 2:0.423204 
2048 1:0.712092 2:0.711602 
2048 1:0.769674 2:0.769282 
2048 1:0.827255 2:0.826961 
2048 1:0.596929 2:0.596243 
2048 1:0.539347 2:0.538563 
2048 1:0.712092 2:0.711602 
2048 1:0.712092 2:0.711602 
2048 1:0.769674 2:0.769282 
2048 1:0.596929 2:0.596243 
2048 1:0.424184 2:0.423204 
2048 1:0.769674 2:0.769282 
2048 1:0.539347 2:0.538563 
2048 1:0.596929 2:0.596243 
2048 1:0.539347 2:0.538563 
2048 1:0.712092 2:0.711602 
2048 1:0.366602 2:0.365524 
2048 1:0.769674 2:0.769282 
2048 1:0.596929 2:0.596243 
2048 1:0.136276 2:0.134806 
2048 1:0.596929 2:0.596243 
2048 1:0.712092 2:0.711602 
2048 1:0.539347 2:0.538563 
2048 1:0.712092 2:0.711602 
2048 1:0.481765 2:0.480884 
2048 1:0.596929 2:0.596243 
2048 1:0.539347 2:0.538563 
2048 1:0.65451 2:0.653922 
2048 1:0.309021 2:0.307845 
2048 1:0.769674 2:0.769282 
2048 1:0.769674 2:0.769282 
2048 1:0.769674 2:0.769282 
2048 1:0.539347 2:0.538563 
2048 1:0.712092 2:0.711602 
2048 1:0.366602 2:0.365524 
2048 1:0.769674 2:0.769282 
2048 1:0.596929 2:0.596243 
2048 1:0.366602 2:0.365524 
2048 1:0.712092 2:0.711602 
2048 1:0.596929 2:0.596243 
2048 1:0.712092 2:0.711602 
2048 1:0.596929 2:0.596243 
2048 1:0.596929 2:0.596243 
2048 1:0.712092 2:0.711602 
2048 1:0.596929 2:0.596243 
2048 1:0.424184 2:0.423204 
2048 1:0.424184 2:0.423204 
2048 1:0.712092 2:0.711602 
2048 1:0.539347 2:0.538563 
2048 1:0.481765 2:0.480884 
2048 1:0.366602 2:0.365524 
2048 1:0.65451 2:0.653922 
2048 1:0.712092 2:0.711602 
2048 1:0.539347 2:0.538563 
2048 1:0.366602 2:0.365524 
2048 1:0.712092 2:0.711602 
2048 1:0.712092 2:0.711602 
2048 1:0.712092 2:0.711602 
2048 1:0.827255 2:0.826961 
2048 1:0.65451 2:0.653922 
2048 1:0.769674 2:0.769282 
2048 1:0.481765 2:0.480884 
2048 1:0.712092 2:0.711602 
2048 1:0.712092 2:0.711602 
2048 1:0.65451 2:0.653922 
2048 1:0.712092 2:0.711602 
2048 1:0.366602 2:0.365524 
2048 1:0.769674 2:0.769282 
2048 1:0.481765 2:0.480884 
2048 1:0.769674 2:0.769282 
2048 1:0.769674 2:0.769282 
2048 1:0.596929 2:0.596243 
2048 1:0.827255 2:0.826961 
2048 1:0.251439 2:0.250165 
2048 1:0.481765 2:0.480884 
2048 1:0.366602 2:0.365524 
2048 1:0.596929 2:0.596243 
2048 1:0.481765 2:0.480884 
2048 1:0.424184 2:0.423204 
2048 1:0.65451 2:0.653922 
2048 1:0.309021 2:0.307845 
2048 1:0.596929 2:0.596243 
2048 1:0.827255 2:0.826961 
2048 1:-0.635904 2:-0.649119 
2048 1:0.424184 2:0.423204 
2048 1:0.65451 2:0.653922 
2048 1:0.712092 2:0.711602 
2048 1:0.424184 2:0.423204 
2048 1:0.712092 2:0.711602 
2048 1:0.769674 2:0.769282 
2048 1:0.596929 2:0.596243 
2048 1:0.480415 2:0.483489 
2048 1:0.309021 2:0.307845 
2048 1:0.596929 2:0.596243 
2048 1:0.712092 2:0.711602 
2048 1:0.481765 2:0.480884 
2048 1:0.424184 2:0.423204 
2048 1:0.481765 2:0.480884 
2048 1:0.827255 2:0.826961 
2048 1:0.424184 2:0.423204 
2048 1:0.827255 2:0.826961 
2048 1:0.112657 2:0.100716 
2048 1:0.481765 2:0.480884 
2048 1:0.65451 2:0.653922 
2048 1:0.539347 2:0.538563 
2048 1:0.65451 2:0.653922 
2048 1:0.769674 2:0.769282 
2048 1:0.769674 2:0.769282 
2048 1:0.309021 2:0.307845 
2048 1:0.769674 2:0.769282 
2048 1:0.424184 2:0.423204 
2048 1:0.596929 2:0.596243 
2048 1:0.712092 2:0.711602 
2048 1:0.596929 2:0.596243 
2048 1:0.424184 2:0.423204 
2048 1:0.65451 2:0.653922 
2048 1:0.596929 2:0.596243 
2048 1:0.65451 2:0.653922 
2048 1:0.712092 2:0.711602 
2048 1:0.481765 2:0.480884 
2048 1:0.65451 2:0.653922 
2048 1:0.769674 2:0.769282 
2048 1:0.65451 2:0.653922 
2048 1:0.424184 2:0.423204 
2048 1:0.424184 2:0.423204 
2048 1:0.481765 2:0.480884 
2048 1:0.769674 2:0.769282 
2048 1:0.309021 2:0.307845 
2048 1:0.712092 2:0.711602 
2048 1:0.596929 2:0.596243 
2048 1:0.309021 2:0.307845 
2048 1:0.251439 2:0.250165 
2048 1:0.309021 2:0.307845 
2048 1:0.712092 2:0.711602 
2048 1:0.285402 2:0.273754 
2048 1:0.539347 2:0.538563 
2048 1:0.596929 2:0.596243 
2048 1:0.65451 2:0.653922 
2048 1:0.769674 2:0.769282 
2048 1:0.251439 2:0.250165 
2048 1:0.539347 2:0.538563 
2048 1:0.712092 2:0.711602 
2048 1:0.827255 2:0.826961 
2048 1:0.424184 2:0.423204 
2048 1:0.366602 2:0.365524 
2048 1:0.596929 2:0.596243 
2048 1:0.596929 2:0.596243 
2048 1:0.596929 2:0.596243 
2048 1:0.251439 2:0.250165 
2048 1:0.309021 2:0.307845 
2048 1:0.193857 2:0.192486 
2048 1:0.65451 2:0.653922 
2048 1:0.712092 2:0.711602 
2048 1:0.712092 2:0.711602 
2048 1:0.596929 2:0.596243 
2048 1:-0.0940507 2:-0.0959124 
2048 1:0.481765 2:0.480884 
2048 1:0.596929 2:0.596243 
2048 1:0.251439 2:0.250165 
2048 1:0.65451 2:0.653922 
2048 1:0.251439 2:0.250165 
2048 1:0.769674 2:0.769282 
2048 1:0.251439 2:0.250165 
2048 1:0.65451 2:0.653922 
2048 1:0.769674 2:0.769282 
2048 1:0.596929 2:0.596243 
2048 1:0.769674 2:0.769282 
2048 1:0.712092 2:0.711602 
2048 1:0.424184 2:0.423204 
2048 1:0.65451 2:0.653922 
2048 1:0.712092 2:0.711602 
2048 1:0.596929 2:0.596243 
2048 1:0.309021 2:0.307845 
2048 1:0.424184 2:0.423204 
2048 1:0.481765 2:0.480884 
2048 1:0.0786941 2:0.0771264 
2048 1:0.712092 2:0.711602 
2048 1:0.193857 2:0.192486 
2048 1:-0.151632 2:-0.153592 
2048 1:0.712092 2:0.711602 
2048 1:0.596929 2:0.596243 
2048 1:0.712092 2:0.711602 
2048 1:0.539347 2:0.538563 
2048 1:0.65451 2:0.653922 
2048 1:0.424184 2:0.423204 
2048 1:0.481765 2:0.480884 
2048 1:0.136276 2:0.134806 
2048 1:0.712092 2:0.711602 
2048 1:0.769674 2:0.769282 
2048 1:0.481765 2:0.480884 
2048 1:0.481765 2:0.480884 
2048 1:0.366602 2:0.365524 
2048 1:0.309021 2:0.307845 
2048 1:0.366602 2:0.365524 
2048 1:0.712092 2:0.711602 
2048 1:0.769674 2:0.769282 
2048 1:0.481765 2:0.480884 
2048 1:0.769674 2:0.769282 
2048 1:0.481765 2:0.480884 
2048 1:0.65451 2:0.653922 
2048 1:0.366602 2:0.365524 
2048 1:0.769674 2:0.769282 
2048 1:0.0786941 2:0.0771264 
2048 1:0.596929 2:0.596243 
2048 1:0.136276 2:0.134806 
2048 1:0.481765 2:0.480884 
2048 1:0.769674 2:0.769282 
2048 1:0.424184 2:0.423204 
2048 1:0.596929 2:0.596243 
2048 1:0.596929 2:0.596243 
2048 1:0.769674 2:0.769282 
2048 1:0.539347 2:0.538563 
2048 1:0.65451 2:0.653922 
2048 1:0.65451 2:0.653922 
2048 1:0.424184 2:0.423204 
2048 1:0.827255 2:0.826961 
2048 1:0.481765 2:0.480884 
2048 1:0.481765 2:0.480884 
2048 1:0.712092 2:0.711602 
2048 1:0.309021 2:0.307845 
2048 1:0.769674 2:0.769282 
2048 1:0.596929 2:0.596243 
2048 1:0.769674 2:0.769282 
2048 1:0.539347 2:0.538563 
2048 1:0.424184 2:0.423204 
2048 1:0.596929 2:0.596243 
2048 1:0.769674 2:0.769282 
2048 1:0.424184 2:0.423204 
2048 1:0.827255 2:0.826961 
2048 1:0.827255 2:0.826961 
2048 1:0.309021 2:0.307845 
2048 1:0.769674 2:0.769282 
2048 1:0.481765 2:0.480884 
2048 1:0.424184 2:0.423204 
2048 1:0.481765 2:0.480884 
2048 1:0.712092 2:0.711602 
2048 1:0.712092 2:0.711602 
2048 1:0.65451 2:0.653922 
2048 1:0.769674 2:0.769282 
2048 1:0.827255 2:0.826961 
2048 1:0.827255 2:0.826961 
2048 1:0.481765 2:0.480884 
2048 1:0.827255 2:0.826961 
2048 1:0.424184 2:0.423204 
2048 1:0.481765 2:0.480884 
2048 1:0.65451 2:0.653922 
2048 1:0.481765 2:0.480884 
2048 1:0.366602 2:0.365524 
2048 1:0.424184 2:0.423204 
2048 1:0.539347 2:0.538563 
2048 1:0.712092 2:0.711602 
2048 1:0.827255 2:0.826961 
2048 1:0.65451 2:0.653922 
2048 1:0.539347 2:0.538563 
2048 1:0.769674 2:0.769282 
2048 1:0.481765 2:0.480884 
2048 1:0.539347 2:0.538563 
2048 1:0.712092 2:0.711602 
2048 1:0.827255 2:0.826961 
2048 1:0.481765 2:0.480884 
2048 1:0.65451 2:0.653922 
2048 1:0.65451 2:0.653922 
2048 1:0.596929 2:0.596243 
2048 1:0.712092 2:0.711602 
2048 1:0.596929 2:0.596243 
2048 1:0.65451 2:0.653922 
2048 1:0.827255 2:0.826961 
2048 1:0.193857 2:0.192486 
2048 1:0.539347 2:0.538563 
2048 1:0.539347 2:0.538563 
2048 1:0.424184 2:0.423204 
2048 1:0.712092 2:0.711602 
2048 1:0.596929 2:0.596243 
2048 1:0.596929 2:0.596243 
2048 1:0.424184 2:0.423204 
2048 1:0.424184 2:0.423204 
2048 1:0.769674 2:0.769282 
190.7912200102093 1:0.884837 2:0.884641 
2048 1:0.309021 2:0.307845 
2048 1:0.827255 2:0.826961 
2048 1:0.596929 2:0.596243 
2048 1:0.769674 2:0.769282 
2048 1:0.884837 2:0.884641 
2048 1:0.366602 2:0.365524 
2048 1:0.539347 2:0.538563 
2048 1:0.65451 2:0.653922 
2048 1:0.712092 2:0.711602 
2048 1:0.596929 2:0.596243 
2048 1:0.827255 2:0.826961 
2048 1:0.65451 2:0.653922 
2048 1:0.712092 2:0.711602 
2048 1:0.65451 2:0.653922 
2048 1:0.712092 2:0.711602 
2048 1:0.712092 2:0.711602 
2048 1:0.481765 2:0.480884 
2048 1:0.712092 2:0.711602 
2048 1:0.884837 2:0.884641 
2048 1:0.596929 2:0.596243 
2048 1:0.827255 2:0.826961 
2048 1:0.481765 2:0.480884 
2048 1:0.769674 2:0.769282 
2048 1:0.539347 2:0.538563 
2048 1:0.65451 2:0.653922 
2048 1:0.251439 2:0.250165 
2048 1:0.596929 2:0.596243 
2048 1:0.712092 2:0.711602 
2048 1:0.712092 2:0.711602 
2048 1:0.65451 2:0.653922 
2048 1:0.65451 2:0.653922 
2048 1:0.769674 2:0.769282 
2048 1:0.827255 2:0.826961 
2048 1:0.596929 2:0.596243 
2048 1:0.596929 2:0.596243 
2048 1:0.251439 2:0.250165 
2048 1:0.539347 2:0.538563 
2048 1:0.366602 2:0.365524 
2048 1:0.596929 2:0.596243 
2048 1:0.65451 2:0.653922 
2048 1:0.424184 2:0.423204 
2048 1:0.424184 2:0.423204 
2048 1:0.827255 2:0.826961 
2048 1:0.424184 2:0.423204 
2048 1:0.884837 2:0.884641 
2048 1:0.539347 2:0.538563 
2048 1:0.769674 2:0.769282 
2048 1:0.539347 2:0.538563 
2048 1:0.539347 2:0.538563 
2048 1:0.712092 2:0.711602 
2048 1:0.481765 2:0.480884 
2048 1:0.424184 2:0.423204 
2048 1:0.769674 2:0.769282 
2048 1:0.65451 2:0.653922 
2048 1:0.424184 2:0.423204 
2048 1:0.884837 2:0.884641 
2048 1:0.539347 2:0.538563 
2048 1:0.596929 2:0.596243 
2048 1:0.769674 2:0.769282 
2048 1:0.424184 2:0.423204 
2048 1:0.193857 2:0.192486 
2048 1:0.366602 2:0.365524 
2048 1:0.65451 2:0.653922 
2048 1:0.596929 2:0.596243 
2048 1:0.596929 2:0.596243 
2048 1:0.481765 2:0.480884 
2048 1:0.424184 2:0.423204 
2048 1:0.309021 2:0.307845 
2048 1:0.424184 2:0.423204 
2048 1:0.65451 2:0.653922 
2048 1:0.309021 2:0.307845 
2048 1:0.65451 2:0.653922 
2048 1:0.65451 2:0.653922 
2048 1:0.827255 2:0.826961 
2048 1:0.481765 2:0.480884 
2048 1:0.366602 2:0.365524 
2048 1:0.539347 2:0.538563 
2048 1:0.539347 2:0.538563 
2048 1:0.596929 2:0.596243 
2048 1:0.309021 2:0.307845 
2048 1:0.712092 2:0.711602 
2048 1:0.65451 2:0.653922 
2048 1:0.596929 2:0.596243 
2048 1:0.827255 2:0.826961 
2048 1:0.769674 2:0.769282 
2048 1:0.827255 2:0.826961 
2048 1:0.712092 2:0.711602 
2048 1:0.712092 2:0.711602 
2048 1:0.769674 2:0.769282 
2048 1:0.596929 2:0.596243 
2048 1:0.712092 2:0.711602 
2048 1:0.712092 2:0.711602 
2048 1:-0.0364691 2:-0.0382328 
2048 1:0.65451 2:0.653922 
2048 1:0.424184 2:0.423204 
2048 1:0.65451 2:0.653922 
2048 1:0.539347 2:0.538563 
2048 1:0.712092 2:0.711602 
2048 1:0.712092 2:0.711602 
2048 1:0.884837 2:0.884641 
2048 1:0.769674 2:0.769282 
2048 1:0.539347 2:0.538563 
2048 1:0.424184 2:0.423204 
2048 1:0.769674 2:0.769282 
2048 1:0.65451 2:0.653922 
2048 1:0.769674 2:0.769282 
2048 1:0.827255 2:0.826961 
2048 1:0.827255 2:0.826961 
2048 1:0.65451 2:0.653922 
2048 1:0.712092 2:0.711602 
2048 1:0.481765 2:0.480884 
2048 1:0.539347 2:0.538563 
2048 1:0.712092 2:0.711602 
2048 1:0.193857 2:0.192486 
2048 1:0.596929 2:0.596243 
2048 1:0.596929 2:0.596243 
2048 1:0.827255 2:0.826961 
2048 1:0.712092 2:0.711602 
2048 1:0.0786941 2:0.0771264 
2048 1:0.65451 2:0.653922 
2048 1:0.539347 2:0.538563 
2048 1:0.539347 2:0.538563 
2048 1:0.827255 2:0.826961 
2048 1:0.769674 2:0.769282 
2048 1:0.827255 2:0.826961 
2048 1:0.539347 2:0.538563 
2048 1:0.827255 2:0.826961 
2048 1:0.596929 2:0.596243 
2048 1:0.481765 2:0.480884 
2048 1:0.309021 2:0.307845 
2048 1:0.769674 2:0.769282 
2048 1:0.539347 2:0.538563 
2048 1:0.0786941 2:0.0771264 
2048 1:0.65451 2:0.653922 
2048 1:0.366602 2:0.365524 
2048 1:0.596929 2:0.596243 
2048 1:0.712092 2:0.711602 
2048 1:0.712092 2:0.711602 
2048 1:0.481765 2:0.480884 
2048 1:0.539347 2:0.538563 
2048 1:0.539347 2:0.538563 
2048 1:0.769674 2:0.769282 
2048 1:0.366602 2:0.365524 
2048 1:0.884837 2:0.884641 
2048 1:0.424184 2:0.423204 
2048 1:0.539347 2:0.538563 
2048 1:0.884837 2:0.884641 
2048 1:-0.65451 2:-0.653922 
2048 1:0.309021 2:0.307845 
2048 1:0.596929 2:0.596243 
2048 1:0.424184 2:0.423204 
2048 1:0.65451 2:0.653922 
2048 1:0.366602 2:0.365524 
2048 1:0.481765 2:0.480884 
2048 1:0.712092 2:0.711602 
2048 1:0.65451 2:0.653922 
2048 1:0.539347 2:0.538563 
2048 1:0.193857 2:0.192486 
2048 1:0.65451 2:0.653922 
2048 1:0.424184 2:0.423204 
2048 1:0.827255 2:0.826961 
2048 1:0.712092 2:0.711602 
2048 1:0.769674 2:0.769282 
2048 1:0.481765 2:0.480884 
2048 1:0.596929 2:0.596243 
2048 1:0.539347 2:0.538563 
2048 1:0.309021 2:0.307845 
2048 1:0.366602 2:0.365524 
2048 1:0.769674 2:0.769282 
2048 1:0.481765 2:0.480884 
2048 1:0.539347 2:0.538563 
2048 1:0.309021 2:0.307845 
2048 1:0.712092 2:0.711602 
2048 1:0.596929 2:0.596243 
2048 1:0.596929 2:0.596243 
2048 1:0.827255 2:0.826961 
2048 1:0.424184 2:0.423204 
2048 1:0.712092 2:0.711602 
2048 1:0.769674 2:0.769282 
2048 1:0.712092 2:0.711602 
2048 1:0.827255 2:0.826961 
2048 1:0.481765 2:0.480884 
2048 1:0.65451 2:0.653922 
2048 1:0.424184 2:0.423204 
2048 1:0.884837 2:0.884641 
2048 1:0.827255 2:0.826961 
2048 1:0.251439 2:0.250165 
2048 1:0.251439 2:0.250165 
2048 1:0.65451 2:0.653922 
2048 1:0.769674 2:0.769282 
2048 1:0.827255 2:0.826961 
2048 1:0.309021 2:0.307845 
2048 1:0.596929 2:0.596243 
2048 1:0.769674 2:0.769282 
2048 1:0.539347 2:0.538563 
2048 1:0.251439 2:0.250165 
2048 1:0.596929 2:0.596243 
2048 1:0.884837 2:0.884641 
2048 1:0.251439 2:0.250165 
2048 1:0.596929 2:0.596243 
2048 1:0.769674 2:0.769282 
2048 1:0.366602 2:0.365524 
2048 1:0.596929 2:0.596243 
2048 1:0.539347 2:0.538563 
2048 1:0.65451 2:0.653922 
2048 1:0.539347 2:0.538563 
2048 1:0.309021 2:0.307845 
2048 1:0.769674 2:0.769282 
2048 1:0.596929 2:0.596243 
2048 1:0.65451 2:0.653922 
2048 1:0.769674 2:0.769282 
2048 1:0.539347 2:0.538563 
2048 1:0.884837 2:0.884641 
2048 1:0.65451 2:0.653922 
2048 1:0.884837 2:0.884641 
2048 1:0.65451 2:0.653922 
2048 1:0.424184 2:0.423204 
2048 1:0.65451 2:0.653922 
2048 1:0.481765 2:0.480884 
2048 1:0.712092 2:0.711602 
2048 1:0.596929 2:0.596243 
2048 1:0.596929 2:0.596243 
2048 1:0.769674 2:0.769282 
2048 1:0.65451 2:0.653922 
2048 1:0.539347 2:0.538563 
2048 1:0.884837 2:0.884641 
2048 1:0.769674 2:0.769282 
2048 1:0.712092 2:0.711602 
2048 1:0.827255 2:0.826961 
2048 1:0.65451 2:0.653922 
2048 1:0.424184 2:0.423204 
2048 1:0.65451 2:0.653922 
2048 1:0.424184 2:0.423204 
2048 1:0.539347 2:0.538563 
2048 1:0.193857 2:0.192486 
2048 1:0.366602 2:0.365524 
2048 1:0.539347 2:0.538563 
2048 1:0.769674 2:0.769282 
2048 1:0.251439 2:0.250165 
2048 1:0.827255 2:0.826961 
2048 1:0.712092 2:0.711602 
2048 1:0.596929 2:0.596243 
2048 1:0.712092 2:0.711602 
2048 1:0.65451 2:0.653922 
2048 1:0.539347 2:0.538563 
2048 1:0.827255 2:0.826961 
2048 1:0.827255 2:0.826961 
2048 1:0.65451 2:0.653922 
2048 1:0.769674 2:0.769282 
2048 1:0.424184 2:0.423204 
2048 1:0.827255 2:0.826961 
2048 1:0.712092 2:0.711602 
2048 1:0.596929 2:0.596243 
2048 1:0.827255 2:0.826961 
2048 1:0.827255 2:0.826961 
2048 1:0.712092 2:0.711602 
2048 1:-0.0940507 2:-0.0959124 
2048 1:0.596929 2:0.596243 
2048 1:0.769674 2:0.769282 
2048 1:0.769674 2:0.769282 
2048 1:0.827255 2:0.826961 
2048 1:0.596929 2:0.596243 
2048 1:0.366602 2:0.365524 
2048 1:0.251439 2:0.250165 
2048 1:0.251439 2:0.250165 
2048 1:0.712092 2:0.711602 
2048 1:0.827255 2:0.826961 
2048 1:0.827255 2:0.826961 
2048 1:0.712092 2:0.711602 
2048 1:0.712092 2:0.711602 
2048 1:0.712092 2:0.711602 
2048 1:0.769674 2:0.769282 
2048 1:0.712092 2:0.711602 
2048 1:0.65451 2:0.653922 
2048 1:0.65451 2:0.653922 
2048 1:0.251439 2:0.250165 
2048 1:0.539347 2:0.538563 
2048 1:0.769674 2:0.769282 
2048 1:0.712092 2:0.711602 
2048 1:0.366602 2:0.365524 
2048 1:0.712092 2:0.711602 
2048 1:0.769674 2:0.769282 
2048 1:0.309021 2:0.307845 
2048 1:0.539347 2:0.538563 
2048 1:0.366602 2:0.365524 
2048 1:0.366602 2:0.365524 
2048 1:0.539347 2:0.538563 
2048 1:0.539347 2:0.538563 
2048 1:0.65451 2:0.653922 
2048 1:0.769674 2:0.769282 
2048 1:0.309021 2:0.307845 
2048 1:0.539347 2:0.538563 
2048 1:0.65451 2:0.653922 
2048 1:0.769674 2:0.769282 
2048 1:0.827255 2:0.826961 
2048 1:0.481765 2:0.480884 
2048 1:0.366602 2:0.365524 
2048 1:0.712092 2:0.711602 
2048 1:0.539347 2:0.538563 
2048 1:0.65451 2:0.653922 
2048 1:0.481765 2:0.480884 
2048 1:0.309021 2:0.307845 
2048 1:0.481765 2:0.480884 
2048 1:0.193857 2:0.192486 
2048 1:0.827255 2:0.826961 
2048 1:0.481765 2:0.480884 
2048 1:0.136276 2:0.134806 
2048 1:0.827255 2:0.826961 
2048 1:0.827255 2:0.826961 
2048 1:0.712092 2:0.711602 
2048 1:0.712092 2:0.711602 
2048 1:0.481765 2:0.480884 
2048 1:0.539347 2:0.538563 
2048 1:0.596929 2:0.596243 
2048 1:0.712092 2:0.711602 
2048 1:0.769674 2:0.769282 
2048 1:-0.209214 2:-0.211272 
2048 1:0.193857 2:0.192486 
2048 1:0.539347 2:0.538563 
2048 1:0.596929 2:0.596243 
2048 1:0.596929 2:0.596243 
2048 1:0.596929 2:0.596243 
2048 1:0.827255 2:0.826961 
2048 1:0.539347 2:0.538563 
2048 1:0.712092 2:0.711602 
2048 1:0.596929 2:0.596243 
2048 1:0.596929 2:0.596243 
2048 1:0.539347 2:0.538563 
2048 1:0.827255 2:0.826961 
2048 1:0.65451 2:0.653922 
2048 1:0.309021 2:0.307845 
2048 1:0.65451 2:0.653922 
2048 1:0.769674 2:0.769282 
2048 1:0.481765 2:0.480884 
2048 1:0.827255 2:0.826961 
2048 1:0.769674 2:0.769282 
2048 1:0.596929 2:0.596243 
2048 1:0.65451 2:0.653922 
2048 1:0.596929 2:0.596243 
2048 1:0.481765 2:0.480884 
2048 1:0.769674 2:0.769282 
2048 1:0.424184 2:0.423204 
2048 1:0.65451 2:0.653922 
2048 1:0.481765 2:0.480884 
2048 1:0.424184 2:0.423204 
2048 1:0.827255 2:0.826961 
2048 1:0.65451 2:0.653922 
2048 1:0.366602 2:0.365524 
2048 1:0.769674 2:0.769282 
2048 1:0.309021 2:0.307845 
2048 1:0.251439 2:0.250165 
2048 1:0.424184 2:0.423204 
2048 1:0.481765 2:0.480884 
2048 1:0.309021 2:0.307845 
2048 1:0.596929 2:0.596243 
2048 1:0.424184 2:0.423204 
2048 1:0.193857 2:0.192486 
2048 1:0.424184 2:0.423204 
2048 1:0.596929 2:0.596243 
2048 1:0.481765 2:0.480884 
2048 1:0.712092 2:0.711602 
2048 1:0.712092 2:0.711602 
2048 1:0.712092 2:0.711602 
2048 1:0.424184 2:0.423204 
2048 1:0.65451 2:0.653922 
2048 1:0.366602 2:0.365524 
2048 1:0.769674 2:0.769282 
2048 1:0.251439 2:0.250165 
2048 1:0.827255 2:0.826961 
2048 1:0.65451 2:0.653922 
2048 1:0.309021 2:0.307845 
2048 1:0.366602 2:0.365524 
2048 1:0.712092 2:0.711602 
2048 1:0.193857 2:0.192486 
2048 1:0.65451 2:0.653922 
2048 1:0.539347 2:0.538563 
2048 1:0.422833 2:0.419228 
2048 1:0.424184 2:0.423204 
2048 1:0.65451 2:0.653922 
2048 1:0.596929 2:0.596243 
2048 1:0.539347 2:0.538563 
2048 1:0.481765 2:0.480884 
2048 1:0.481765 2:0.480884 
2048 1:0.309021 2:0.307845 
2048 1:0.712092 2:0.711602 
2048 1:0.596929 2:0.596243 
2048 1:0.193857 2:0.192486 
2048 1:0.827255 2:0.826961 
2048 1:0.65451 2:0.653922 
2048 1:0.712092 2:0.711602 
2048 1:0.769674 2:0.769282 
2048 1:0.769674 2:0.769282 
2048 1:0.193857 2:0.192486 
2048 1:0.424184 2:0.423204 
2048 1:0.481765 2:0.480884 
2048 1:0.481765 2:0.480884 
2048 1:0.769674 2:0.769282 
2048 1:0.712092 2:0.711602 
2048 1:0.481765 2:0.480884 
2048 1:0.769674 2:0.769282 
2048 1:0.151632 2:0.153592 
2048 1:0.251439 2:0.250165 
2048 1:0.251439 2:0.250165 
2048 1:0.481765 2:0.480884 
2048 1:0.65451 2:0.653922 
2048 1:0.769674 2:0.769282 
2048 1:0.65451 2:0.653922 
2048 1:0.0786941 2:0.0771264 
2048 1:0.309021 2:0.307845 
2048 1:0.712092 2:0.711602 
2048 1:0.769674 2:0.769282 
2048 1:0.712092 2:0.711602 
2048 1:-0.0364691 2:-0.0382328 
2048 1:0.539347 2:0.538563 
2048 1:0.481765 2:0.480884 
2048 1:0.539347 2:0.538563 
2048 1:-0.151632 2:-0.153592 
2048 1:0.827255 2:0.826961 
2048 1:0.309021 2:0.307845 
2048 1:0.712092 2:0.711602 
2048 1:0.827255 2:0.826961 
2048 1:0.539347 2:0.538563 
2048 1:0.65451 2:0.653922 
2048 1:0.596929 2:0.596243 
2048 1:0.65451 2:0.653922 
2048 1:0.596929 2:0.596243 
2048 1:0.769674 2:0.769282 
2048 1:0.481765 2:0.480884 
2048 1:0.712092 2:0.711602 
2048 1:0.827255 2:0.826961 
2048 1:0.65451 2:0.653922 
2048 1:0.309021 2:0.307845 
2048 1:0.65451 2:0.653922 
2048 1:0.309021 2:0.307845 
2048 1:0.365251 2:0.361549 
2048 1:0.481765 2:0.480884 
2048 1:0.481765 2:0.480884 
2048 1:0.539347 2:0.538563 
2048 1:0.65451 2:0.653922 
2048 1:0.65451 2:0.653922 
2048 1:0.65451 2:0.653922 
2048 1:0.251439 2:0.250165 
2048 1:0.769674 2:0.769282 
2048 1:0.65451 2:0.653922 
2048 1:0.65451 2:0.653922 
2048 1:0.827255 2:0.826961 
2048 1:0.769674 2:0.769282 
2048 1:0.769674 2:0.769282 
2048 1:0.65451 2:0.653922 
2048 1:0.136276 2:0.134806 
2048 1:0.596929 2:0.596243 
2048 1:0.539347 2:0.538563 
2048 1:-0.209214 2:-0.211272 
2048 1:0.481765 2:0.480884 
2048 1:0.539347 2:0.538563 
2048 1:0.827255 2:0.826961 
2048 1:0.539347 2:0.538563 
2048 1:0.481765 2:0.480884 
2048 1:0.827255 2:0.826961 
2048 1:0.65451 2:0.653922 
2048 1:0.424184 2:0.423204 
2048 1:0.424184 2:0.423204 
2048 1:0.366602 2:0.365524 
2048 1:0.769674 2:0.769282 
2048 1:0.481765 2:0.480884 
2048 1:0.712092 2:0.711602 
2048 1:0.712092 2:0.711602 
2048 1:0.539347 2:0.538563 
2048 1:0.596929 2:0.596243 
2048 1:0.366602 2:0.365524 
2048 1:0.65451 2:0.653922 
2048 1:0.712092 2:0.711602 
2048 1:0.366602 2:0.365524 
2048 1:0.712092 2:0.711602 
2048 1:0.596929 2:0.596243 
2048 1:0.596929 2:0.596243 
2048 1:0.712092 2:0.711602 
2048 1:0.342984 2:0.331434 
2048 1:0.596929 2:0.596243 
2048 1:0.539347 2:0.538563 
2048 1:0.424184 2:0.423204 
2048 1:0.596929 2:0.596243 
2048 1:0.481765 2:0.480884 
2048 1:0.596929 2:0.596243 
2048 1:0.481765 2:0.480884 
2048 1:0.712092 2:0.711602 
2048 1:0.65451 2:0.653922 
2048 1:0.539347 2:0.538563 
2048 1:0.827255 2:0.826961 
2048 1:0.65451 2:0.653922 
2048 1:0.596929 2:0.596243 
2048 1:0.136276 2:0.134806 
2048 1:0.65451 2:0.653922 
2048 1:0.769674 2:0.769282 
2048 1:0.539347 2:0.538563 
2048 1:0.596929 2:0.596243 
2048 1:0.596929 2:0.596243 
2048 1:0.596929 2:0.596243 
2048 1:0.65451 2:0.653922 
2048 1:0.65451 2:0.653922 
2048 1:0.712092 2:0.711602 
2048 1:0.596929 2:0.596243 
2048 1:0.712092 2:0.711602 
2048 1:0.827255 2:0.826961 
2048 1:0.424184 2:0.423204 
2048 1:0.596929 2:0.596243 
2048 1:0.712092 2:0.711602 
2048 1:0.424184 2:0.423204 
2048 1:0.251439 2:0.250165 
2048 1:0.481765 2:0.480884 
2048 1:0.769674 2:0.769282 
2048 1:0.712092 2:0.711602 
2048 1:0.309021 2:0.307845 
2048 1:0.827255 2:0.826961 
2048 1:0.712092 2:0.711602 
2048 1:0.366602 2:0.365524 
2048 1:0.712092 2:0.711602 
2048 1:0.827255 2:0.826961 
2048 1:0.65451 2:0.653922 
2048 1:0.65451 2:0.653922 
2048 1:0.539347 2:0.538563 
2048 1:0.424184 2:0.423204 
2048 1:0.366602 2:0.365524 
2048 1:0.366602 2:0.365524 
2048 1:0.366602 2:0.365524 
2048 1:0.712092 2:0.711602 
2048 1:0.424184 2:0.423204 
2048 1:0.309021 2:0.307845 
2048 1:0.769674 2:0.769282 
2048 1:0.65451 2:0.653922 
2048 1:0.596929 2:0.596243 
2048 1:0.424184 2:0.423204 
2048 1:0.251439 2:0.250165 
2048 1:0.0211125 2:0.0194468 
2048 1:0.827255 2:0.826961 
2048 1:0.539347 2:0.538563 
2048 1:0.769674 2:0.769282 
2048 1:0.596929 2:0.596243 
2048 1:0.539347 2:0.538563 
2048 1:0.539347 2:0.538563 
2048 1:0.712092 2:0.711602 
2048 1:0.596929 2:0.596243 
2048 1:0.712092 2:0.711602 
2048 1:0.712092 2:0.711602 
2048 1:0.712092 2:0.711602 
2048 1:0.424184 2:0.423204 
2048 1:0.136276 2:0.134806 
2048 1:0.712092 2:0.711602 
2048 1:0.65451 2:0.653922 
2048 1:0.136276 2:0.134806 
2048 1:0.596929 2:0.596243 
2048 1:0.481765 2:0.480884 
2048 1:0.539347 2:0.538563 
2048 1:0.539347 2:0.538563 
2048 1:0.481765 2:0.480884 
2048 1:0.481765 2:0.480884 
2048 1:0.827255 2:0.826961 
2048 1:-0.209214 2:-0.211272 
2048 1:0.596929 2:0.596243 
2048 1:0.481765 2:0.480884 
2048 1:0.769674 2:0.769282 
2048 1:0.827255 2:0.826961 
2048 1:0.424184 2:0.423204 
2048 1:0.596929 2:0.596243 
2048 1:0.65451 2:0.653922 
2048 1:0.481765 2:0.480884 
2048 1:0.539347 2:0.538563 
2048 1:0.309021 2:0.307845 
2048 1:0.65451 2:0.653922 
2048 1:0.481765 2:0.480884 
2048 1:0.827255 2:0.826961 
2048 1:0.712092 2:0.711602 
2048 1:0.712092 2:0.711602 
2048 1:0.769674 2:0.769282 
2048 1:0.712092 2:0.711602 
2048 1:0.769674 2:0.769282 
2048 1:0.539347 2:0.538563 
2048 1:0.136276 2:0.134806 
2048 1:0.712092 2:0.711602 
2048 1:0.424184 2:0.423204 
2048 1:0.136276 2:0.134806 
2048 1:0.539347 2:0.538563 
2048 1:0.539347 2:0.538563 
2048 1:0.424184 2:0.423204 
2048 1:0.769674 2:0.769282 
2048 1:0.481765 2:0.480884 
2048 1:0.136276 2:0.134806 
2048 1:0.0786941 2:0.0771264 
2048 1:0.65451 2:0.653922 
2048 1:0.309021 2:0.307845 
2048 1:0.769674 2:0.769282 
2048 1:0.65451 2:0.653922 
2048 1:0.596929 2:0.596243 
2048 1:0.309021 2:0.307845 
2048 1:0.712092 2:0.711602 
2048 1:0.712092 2:0.711602 
2048 1:0.769674 2:0.769282 
2048 1:0.769674 2:0.769282 
2048 1:0.827255 2:0.826961 
2048 1:0.481765 2:0.480884 
2048 1:0.769674 2:0.769282 
2048 1:0.481765 2:0.480884 
2048 1:-0.43954 2:-0.44199 
2048 1:0.65451 2:0.653922 
2048 1:0.424184 2:0.423204 
2048 1:0.596929 2:0.596243 
2048 1:0.65451 2:0.653922 
2048 1:0.827255 2:0.826961 
2048 1:0.366602 2:0.365524 
2048 1:0.193857 2:0.192486 
2048 1:0.481765 2:0.480884 
2048 1:0.366602 2:0.365524 
2048 1:0.366602 2:0.365524 
2048 1:0.481765 2:0.480884 
2048 1:0.596929 2:0.596243 
2048 1:0.193857 2:0.192486 
2048 1:0.539347 2:0.538563 
2048 1:0.827255 2:0.826961 
2048 1:0.424184 2:0.423204 
2048 1:0.827255 2:0.826961 
2048 1:0.424184 2:0.423204 
2048 1:0.65451 2:0.653922 
2048 1:0.769674 2:0.769282 
2048 1:0.366602 2:0.365524 
2048 1:0.481765 2:0.480884 
2048 1:0.424184 2:0.423204 
2048 1:0.539347 2:0.538563 
2048 1:0.769674 2:0.769282 
2048 1:0.827255 2:0.826961 
2048 1:0.539347 2:0.538563 
2048 1:0.366602 2:0.365524 
2048 1:0.65451 2:0.653922 
2048 1:0.712092 2:0.711602 
2048 1:0.539347 2:0.538563 
2048 1:0.65451 2:0.653922 
2048 1:0.366602 2:0.365524 
2048 1:0.539347 2:0.538563 
2048 1:0.769674 2:0.769282 
2048 1:0.65451 2:0.653922 
2048 1:0.424184 2:0.423204 
2048 1:0.596929 2:0.596243 
2048 1:0.712092 2:0.711602 
2048 1:0.712092 2:0.711602 
2048 1:0.596929 2:0.596243 
2048 1:0.65451 2:0.653922 
2048 1:0.827255 2:0.826961 
2048 1:0.769674 2:0.769282 
2048 1:0.827255 2:0.826961 
2048 1:0.65451 2:0.653922 
2048 1:0.424184 2:0.423204 
2048 1:-0.0940507 2:-0.0959124 
2048 1:0.481765 2:0.480884 
2048 1:0.769674 2:0.769282 
2048 1:0.481765 2:0.480884 
2048 1:0.769674 2:0.769282 
2048 1:0.712092 2:0.711602 
2048 1:-0.209214 2:-0.211272 
2048 1:0.251439 2:0.250165 
2048 1:0.366602 2:0.365524 
2048 1:0.539347 2:0.538563 
2048 1:0.596929 2:0.596243 
2048 1:0.65451 2:0.653922 
2048 1:0.827255 2:0.826961 
2048 1:0.539347 2:0.538563 
2048 1:0.309021 2:0.307845 
2048 1:0.65451 2:0.653922 
2048 1:0.827255 2:0.826961 
2048 1:0.827255 2:0.826961 
2048 1:0.65451 2:0.653922 
2048 1:0.827255 2:0.826961 
2048 1:0.424184 2:0.423204 
2048 1:0.712092 2:0.711602 
2048 1:0.65451 2:0.653922 
2048 1:0.424184 2:0.423204 
2048 1:0.539347 2:0.538563 
2048 1:0.712092 2:0.711602 
2048 1:0.827255 2:0.826961 
2048 1:0.596929 2:0.596243 
2048 1:0.366602 2:0.365524 
2048 1:0.769674 2:0.769282 
2048 1:0.827255 2:0.826961 
2048 1:0.827255 2:0.826961 
2048 1:0.424184 2:0.423204 
2048 1:0.827255 2:0.826961 
2048 1:0.827255 2:0.826961 
2048 1:0.251439 2:0.250165 
2048 1:0.366602 2:0.365524 
2048 1:0.65451 2:0.653922 
2048 1:0.366602 2:0.365524 
2048 1:0.596929 2:0.596243 
2048 1:0.366602 2:0.365524 
2048 1:0.481765 2:0.480884 
2048 1:0.769674 2:0.769282 
2048 1:0.596929 2:0.596243 
2048 1:0.712092 2:0.711602 
2048 1:0.481765 2:0.480884 
2048 1:0.827255 2:0.826961 
2048 1:0.596929 2:0.596243 
2048 1:0.481765 2:0.480884 
2048 1:0.481765 2:0.480884 
2048 1:0.769674 2:0.769282 
2048 1:0.65451 2:0.653922 
2048 1:0.596929 2:0.596243 
2048 1:0.596929 2:0.596243 
2048 1:0.827255 2:0.826961 
2048 1:0.481765 2:0.480884 
2048 1:0.712092 2:0.711602 
2048 1:0.539347 2:0.538563 
2048 1:0.481765 2:0.480884 
2048 1:0.481765 2:0.480884 
2048 1:0.712092 2:0.711602 
2048 1:0.596929 2:0.596243 
2048 1:0.65451 2:0.653922 
2048 1:0.539347 2:0.538563 
2048 1:0.712092 2:0.711602 
2048 1:0.193857 2:0.192486 
2048 1:0.65451 2:0.653922 
2048 1:0.65451 2:0.653922 
2048 1:0.769674 2:0.769282 
2048 1:0.596929 2:0.596243 
2048 1:0.712092 2:0.711602 
2048 1:0.309021 2:0.307845 
2048 1:0.539347 2:0.538563 
2048 1:0.0786941 2:0.0771264 
2048 1:0.136276 2:0.134806 
2048 1:0.481765 2:0.480884 
2048 1:0.193857 2:0.192486 
2048 1:0.769674 2:0.769282 
2048 1:0.712092 2:0.711602 
2048 1:0.827255 2:0.826961 
2048 1:0.539347 2:0.538563 
2048 1:0.309021 2:0.307845 
2048 1:0.827255 2:0.826961 
2048 1:0.712092 2:0.711602 
2048 1:0.712092 2:0.711602 
2048 1:0.309021 2:0.307845 
2048 1:0.827255 2:0.826961 
2048 1:0.596929 2:0.596243 
2048 1:0.769674 2:0.769282 
2048 1:0.712092 2:0.711602 
2048 1:0.539347 2:0.538563 
2048 1:0.65451 2:0.653922 
2048 1:0.712092 2:0.711602 
2048 1:0.769674 2:0.769282 
2048 1:0.539347 2:0.538563 
2048 1:0.0786941 2:0.0771264 
2048 1:0.769674 2:0.769282 
2048 1:0.712092 2:0.711602 
2048 1:0.136276 2:0.134806 
2048 1:0.827255 2:0.826961 
2048 1:0.712092 2:0.711602 
2048 1:0.596929 2:0.596243 
2048 1:0.424184 2:0.423204 
2048 1:0.596929 2:0.596243 
2048 1:0.596929 2:0.596243 
2048 1:0.827255 2:0.826961 
2048 1:0.251439 2:0.250165 
2048 1:0.712092 2:0.711602 
2048 1:0.251439 2:0.250165 
2048 1:0.712092 2:0.711602 
2048 1:0.309021 2:0.307845 
2048 1:0.481765 2:0.480884 
2048 1:0.481765 2:0.480884 
2048 1:0.769674 2:0.769282 
2048 1:0.424184 2:0.423204 
2048 1:0.769674 2:0.769282 
2048 1:0.712092 2:0.711602 
2048 1:0.769674 2:0.769282 
2048 1:0.481765 2:0.480884 
2048 1:0.481765 2:0.480884 
2048 1:0.596929 2:0.596243 
2048 1:0.827255 2:0.826961 
2048 1:0.827255 2:0.826961 
2048 1:0.827255 2:0.826961 
2048 1:0.769674 2:0.769282 
2048 1:0.366602 2:0.365524 
2048 1:0.712092 2:0.711602 
2048 1:0.596929 2:0.596243 
2048 1:0.193857 2:0.192486 
2048 1:0.366602 2:0.365524 
2048 1:0.136276 2:0.134806 
2048 1:0.769674 2:0.769282 
2048 1:0.769674 2:0.769282 
2048 1:0.65451 2:0.653922 
2048 1:0.65451 2:0.653922 
2048 1:0.712092 2:0.711602 
2048 1:0.539347 2:0.538563 
2048 1:0.65451 2:0.653922 
2048 1:0.596929 2:0.596243 
2048 1:0.424184 2:0.423204 
2048 1:0.65451 2:0.653922 
2048 1:0.769674 2:0.769282 
2048 1:0.481765 2:0.480884 
2048 1:0.65451 2:0.653922 
2048 1:0.539347 2:0.538563 
2048 1:0.769674 2:0.769282 
2048 1:0.827255 2:0.826961 
2048 1:0.539347 2:0.538563 
2048 1:0.769674 2:0.769282 
2048 1:0.481765 2:0.480884 
2048 1:0.712092 2:0.711602 
2048 1:0.366602 2:0.365524 
2048 1:0.539347 2:0.538563 
2048 1:0.712092 2:0.711602 
2048 1:0.769674 2:0.769282 
2048 1:0.712092 2:0.711602 
2048 1:0.65451 2:0.653922 
2048 1:0.596929 2:0.596243 
2048 1:0.309021 2:0.307845 
2048 1:0.769674 2:0.769282 
2048 1:0.424184 2:0.423204 
2048 1:0.769674 2:0.769282 
2048 1:0.309021 2:0.307845 
2048 1:0.596929 2:0.596243 
2048 1:0.481765 2:0.480884 
2048 1:0.481765 2:0.480884 
2048 1:0.769674 2:0.769282 
2048 1:0.712092 2:0.711602 
2048 1:0.65451 2:0.653922 
2048 1:0.769674 2:0.769282 
2048 1:0.596929 2:0.596243 
2048 1:0.481765 2:0.480884 
2048 1:0.65451 2:0.653922 
2048 1:0.539347 2:0.538563 
2048 1:0.481765 2:0.480884 
2048 1:0.366602 2:0.365524 
2048 1:-0.159894 2:-0.168896 
2048 1:0.366602 2:0.365524 
2048 1:0.539347 2:0.538563 
2048 1:0.424184 2:0.423204 
2048 1:0.65451 2:0.653922 
2048 1:0.539347 2:0.538563 
2048 1:0.65451 2:0.653922 
2048 1:0.309021 2:0.307845 
2048 1:0.712092 2:0.711602 
2048 1:-0.0364691 2:-0.0382328 
2048 1:0.712092 2:0.711602 
2048 1:0.827255 2:0.826961 
2048 1:0.712092 2:0.711602 
2048 1:0.481765 2:0.480884 
2048 1:0.539347 2:0.538563 
2048 1:0.481765 2:0.480884 
2048 1:0.539347 2:0.538563 
2048 1:0.712092 2:0.711602 
2048 1:0.539347 2:0.538563 
2048 1:0.769674 2:0.769282 
2048 1:0.827255 2:0.826961 
2048 1:0.712092 2:0.711602 
2048 1:0.424184 2:0.423204 
2048 1:0.539347 2:0.538563 
2048 1:0.596929 2:0.596243 
2048 1:0.539347 2:0.538563 
2048 1:0.481765 2:0.480884 
2048 1:0.481765 2:0.480884 
2048 1:0.596929 2:0.596243 
2048 1:0.424184 2:0.423204 
2048 1:0.596929 2:0.596243 
2048 1:0.539347 2:0.538563 
2048 1:0.712092 2:0.711602 
2048 1:0.712092 2:0.711602 
2048 1:0.366602 2:0.365524 
2048 1:0.827255 2:0.826961 
2048 1:0.424184 2:0.423204 
2048 1:0.65451 2:0.653922 
2048 1:0.424184 2:0.423204 
2048 1:0.712092 2:0.711602 
2048 1:0.596929 2:0.596243 
2048 1:0.65451 2:0.653922 
2048 1:0.424184 2:0.423204 
2048 1:0.827255 2:0.826961 
2048 1:0.827255 2:0.826961 
2048 1:0.136276 2:0.134806 
2048 1:0.424184 2:0.423204 
2048 1:0.539347 2:0.538563 
2048 1:0.827255 2:0.826961 
2048 1:0.769674 2:0.769282 
2048 1:0.539347 2:0.538563 
2048 1:0.712092 2:0.711602 
2048 1:0.712092 2:0.711602 
2048 1:0.424184 2:0.423204 
2048 1:0.769674 2:0.769282 
2048 1:0.366602 2:0.365524 
2048 1:0.596929 2:0.596243 
2048 1:0.712092 2:0.711602 
2048 1:0.65451 2:0.653922 
2048 1:0.65451 2:0.653922 
2048 1:0.366602 2:0.365524 
2048 1:0.712092 2:0.711602 
2048 1:0.65451 2:0.653922 
2048 1:0.596929 2:0.596243 
2048 1:0.424184 2:0.423204 
2048 1:0.769674 2:0.769282 
2048 1:0.769674 2:0.769282 
2048 1:0.65451 2:0.653922 
2048 1:0.539347 2:0.538563 
2048 1:0.136276 2:0.134806 
2048 1:0.424184 2:0.423204 
2048 1:0.596929 2:0.596243 
2048 1:0.65451 2:0.653922 
2048 1:0.309021 2:0.307845 
2048 1:0.0786941 2:0.0771264 
2048 1:0.712092 2:0.711602 
2048 1:0.309021 2:0.307845 
2048 1:0.712092 2:0.711602 
2048 1:0.769674 2:0.769282 
2048 1:0.251439 2:0.250165 
2048 1:0.712092 2:0.711602 
2048 1:-0.151632 2:-0.153592 
2048 1:0.596929 2:0.596243 
2048 1:0.596929 2:0.596243 
2048 1:0.596929 2:0.596243 
2048 1:0.136276 2:0.134806 
2048 1:0.596929 2:0.596243 
2048 1:0.769674 2:0.769282 
2048 1:0.309021 2:0.307845 
2048 1:0.539347 2:0.538563 
2048 1:0.539347 2:0.538563 
2048 1:0.769674 2:0.769282 
2048 1:0.769674 2:0.769282 
2048 1:0.65451 2:0.653922 
2048 1:0.65451 2:0.653922 
2048 1:0.65451 2:0.653922 
2048 1:0.65451 2:0.653922 
2048 1:0.424184 2:0.423204 
2048 1:0.712092 2:0.711602 
2048 1:0.424184 2:0.423204 
2048 1:0.65451 2:0.653922 
2048 1:0.65451 2:0.653922 
2048 1:0.769674 2:0.769282 
2048 1:0.481765 2:0.480884 
2048 1:0.136276 2:0.134806 
2048 1:0.539347 2:0.538563 
2048 1:0.424184 2:0.423204 
2048 1:0.424184 2:0.423204 
2048 1:0.481765 2:0.480884 
2048 1:0.827255 2:0.826961 
2048 1:0.596929 2:0.596243 
2048 1:0.827255 2:0.826961 
2048 1:0.136276 2:0.134806 
2048 1:0.596929 2:0.596243 
2048 1:0.827255 2:0.826961 
2048 1:0.481765 2:0.480884 
2048 1:0.309021 2:0.307845 
2048 1:0.596929 2:0.596243 
2048 1:0.539347 2:0.538563 
2048 1:0.539347 2:0.538563 
2048 1:0.65451 2:0.653922 
2048 1:0.65451 2:0.653922 
2048 1:0.596929 2:0.596243 
2048 1:0.712092 2:0.711602 
2048 1:0.596929 2:0.596243 
2048 1:0.539347 2:0.538563 
2048 1:0.424184 2:0.423204 
2048 1:0.596929 2:0.596243 
2048 1:0.309021 2:0.307845 
2048 1:0.596929 2:0.596243 
2048 1:0.539347 2:0.538563 
2048 1:0.596929 2:0.596243 
2048 1:0.539347 2:0.538563 
2048 1:0.366602 2:0.365524 
2048 1:0.539347 2:0.538563 
2048 1:-0.0364691 2:-0.0382328 
2048 1:0.539347 2:0.538563 
2048 1:0.539347 2:0.538563 
2048 1:0.769674 2:0.769282 
2048 1:0.769674 2:0.769282 
2048 1:0.366602 2:0.365524 
2048 1:0.712092 2:0.711602 
2048 1:0.481765 2:0.480884 
2048 1:0.769674 2:0.769282 
2048 1:0.712092 2:0.711602 
2048 1:0.596929 2:0.596243 
2048 1:0.366602 2:0.365524 
2048 1:0.309021 2:0.307845 
2048 1:0.65451 2:0.653922 
2048 1:0.769674 2:0.769282 
2048 1:0.65451 2:0.653922 
2048 1:0.424184 2:0.423204 
2048 1:0.481765 2:0.480884 
2048 1:0.424184 2:0.423204 
2048 1:0.596929 2:0.596243 
2048 1:0.712092 2:0.711602 
2048 1:0.309021 2:0.307845 
2048 1:0.65451 2:0.653922 
2048 1:0.769674 2:0.769282 
2048 1:0.712092 2:0.711602 
2048 1:0.366602 2:0.365524 
2048 1:0.539347 2:0.538563 
2048 1:0.424184 2:0.423204 
2048 1:0.424184 2:0.423204 
2048 1:0.65451 2:0.653922 
2048 1:0.596929 2:0.596243 
2048 1:0.193857 2:0.192486 
2048 1:0.827255 2:0.826961 
2048 1:0.827255 2:0.826961 
2048 1:0.769674 2:0.769282 
2048 1:0.65451 2:0.653922 
2048 1:0.596929 2:0.596243 
2048 1:0.515729 2:0.504473 
2048 1:0.769674 2:0.769282 
2048 1:0.539347 2:0.538563 
2048 1:0.596929 2:0.596243 
2048 1:0.251439 2:0.250165 
2048 1:0.827255 2:0.826961 
2048 1:0.309021 2:0.307845 
2048 1:0.424184 2:0.423204 
2048 1:0.539347 2:0.538563 
2048 1:0.481765 2:0.480884 
2048 1:0.481765 2:0.480884 
2048 1:0.712092 2:0.711602 
2048 1:0.424184 2:0.423204 
2048 1:0.65451 2:0.653922 
2048 1:0.596929 2:0.596243 
2048 1:0.827255 2:0.826961 
2048 1:0.424184 2:0.423204 
2048 1:0.596929 2:0.596243 
2048 1:0.481765 2:0.480884 
2048 1:0.193857 2:0.192486 
2048 1:0.481765 2:0.480884 
2048 1:0.539347 2:0.538563 
2048 1:0.827255 2:0.826961 
2048 1:0.596929 2:0.596243 
2048 1:0.251439 2:0.250165 
2048 1:0.712092 2:0.711602 
2048 1:0.712092 2:0.711602 
2048 1:0.769674 2:0.769282 
2048 1:0.712092 2:0.711602 
2048 1:0.309021 2:0.307845 
2048 1:0.481765 2:0.480884 
2048 1:0.539347 2:0.538563 
2048 1:0.65451 2:0.653922 
2048 1:0.712092 2:0.711602 
2048 1:0.539347 2:0.538563 
2048 1:0.596929 2:0.596243 
2048 1:0.0786941 2:0.0771264 
2048 1:0.366602 2:0.365524 
2048 1:0.424184 2:0.423204 
2048 1:0.827255 2:0.826961 
2048 1:0.596929 2:0.596243 
2048 1:0.596929 2:0.596243 
2048 1:0.366602 2:0.365524 
2048 1:0.596929 2:0.596243 
2048 1:0.65451 2:0.653922 
2048 1:0.309021 2:0.307845 
2048 1:0.539347 2:0.538563 
2048 1:0.539347 2:0.538563 
2048 1:0.596929 2:0.596243 
2048 1:0.480415 2:0.476908 
2048 1:0.769674 2:0.769282 
2048 1:0.481765 2:0.480884 
2048 1:0.539347 2:0.538563 
2048 1:0.539347 2:0.538563 
2048 1:0.481765 2:0.480884 
2048 1:0.596929 2:0.596243 
2048 1:0.424184 2:0.423204 
2048 1:0.539347 2:0.538563 
2048 1:0.712092 2:0.711602 
2048 1:0.769674 2:0.769282 
2048 1:0.366602 2:0.365524 
2048 1:0.424184 2:0.423204 
2048 1:0.481765 2:0.480884 
2048 1:0.193857 2:0.192486 
2048 1:0.424184 2:0.423204 
2048 1:0.596929 2:0.596243 
2048 1:0.827255 2:0.826961 
2048 1:0.827255 2:0.826961 
2048 1:0.769674 2:0.769282 
2048 1:0.424184 2:0.423204 
2048 1:0.712092 2:0.711602 
2048 1:0.596929 2:0.596243 
2048 1:0.65451 2:0.653922 
2048 1:0.712092 2:0.711602 
2048 1:0.136276 2:0.134806 
2048 1:0.193857 2:0.192486 
2048 1:0.596929 2:0.596243 
2048 1:0.400566 2:0.389114 
2048 1:0.827255 2:0.826961 
2048 1:0.366602 2:0.365524 
2048 1:0.769674 2:0.769282 
2048 1:0.539347 2:0.538563 
2048 1:0.596929 2:0.596243 
2048 1:0.827255 2:0.826961 
2048 1:0.712092 2:0.711602 
2048 1:0.539347 2:0.538563 
2048 1:0.65451 2:0.653922 
2048 1:0.539347 2:0.538563 
2048 1:0.424184 2:0.423204 
2048 1:0.251439 2:0.250165 
2048 1:-0.209214 2:-0.211272 
2048 1:0.539347 2:0.538563 
2048 1:0.827255 2:0.826961 
2048 1:0.712092 2:0.711602 
2048 1:0.769674 2:0.769282 
2048 1:0.827255 2:0.826961 
2048 1:0.424184 2:0.423204 
2048 1:0.424184 2:0.423204 
2048 1:0.366602 2:0.365524 
2048 1:0.769674 2:0.769282 
2048 1:0.769674 2:0.769282 
2048 1:0.712092 2:0.711602 
2048 1:0.424184 2:0.423204 
2048 1:0.827255 2:0.826961 
2048 1:0.596929 2:0.596243 
2048 1:0.65451 2:0.653922 
2048 1:0.712092 2:0.711602 
2048 1:0.596929 2:0.596243 
2048 1:0.827255 2:0.826961 
2048 1:0.712092 2:0.711602 
2048 1:0.596929 2:0.596243 
2048 1:0.424184 2:0.423204 
2048 1:0.596929 2:0.596243 
2048 1:0.539347 2:0.538563 
2048 1:0.596929 2:0.596243 
2048 1:0.366602 2:0.365524 
2048 1:0.827255 2:0.826961 
2048 1:0.827255 2:0.826961 
2048 1:0.769674 2:0.769282 
2048 1:0.769674 2:0.769282 
2048 1:0.539347 2:0.538563 
2048 1:0.65451 2:0.653922 
2048 1:0.366602 2:0.365524 
2048 1:0.827255 2:0.826961 
2048 1:0.309021 2:0.307845 
2048 1:0.65451 2:0.653922 
2048 1:0.596929 2:0.596243 
2048 1:0.366602 2:0.365524 
2048 1:0.769674 2:0.769282 
2048 1:0.424184 2:0.423204 
2048 1:0.193857 2:0.192486 
2048 1:0.539347 2:0.538563 
2048 1:0.712092 2:0.711602 
2048 1:0.539347 2:0.538563 
2048 1:0.769674 2:0.769282 
2048 1:0.712092 2:0.711602 
2048 1:0.481765 2:0.480884 
2048 1:0.424184 2:0.423204 
2048 1:0.539347 2:0.538563 
2048 1:0.309021 2:0.307845 
2048 1:0.712092 2:0.711602 
2048 1:0.596929 2:0.596243 
2048 1:0.424184 2:0.423204 
2048 1:0.827255 2:0.826961 
2048 1:0.712092 2:0.711602 
2048 1:0.65451 2:0.653922 
2048 1:0.596929 2:0.596243 
2048 1:-0.0364691 2:-0.0382328 
2048 1:0.712092 2:0.711602 
2048 1:0.251439 2:0.250165 
2048 1:0.424184 2:0.423204 
2048 1:0.769674 2:0.769282 
2048 1:0.65451 2:0.653922 
2048 1:0.827255 2:0.826961 
2048 1:0.251439 2:0.250165 
2048 1:0.366602 2:0.365524 
2048 1:0.424184 2:0.423204 
2048 1:0.712092 2:0.711602 
2048 1:0.539347 2:0.538563 
2048 1:0.65451 2:0.653922 
2048 1:0.539347 2:0.538563 
2048 1:0.769674 2:0.769282 
2048 1:0.424184 2:0.423204 
2048 1:0.539347 2:0.538563 
2048 1:0.769674 2:0.769282 
2048 1:0.596929 2:0.596243 
2048 1:0.481765 2:0.480884 
2048 1:0.769674 2:0.769282 
2048 1:0.596929 2:0.596243 
2048 1:0.424184 2:0.423204 
2048 1:0.769674 2:0.769282 
2048 1:0.193857 2:0.192486 
2048 1:0.193857 2:0.192486 
2048 1:0.481765 2:0.480884 
2048 1:0.65451 2:0.653922 
2048 1:0.65451 2:0.653922 
2048 1:0.596929 2:0.596243 
2048 1:0.769674 2:0.769282 
2048 1:0.309021 2:0.307845 
2048 1:0.539347 2:0.538563 
2048 1:0.596929 2:0.596243 
2048 1:0.596929 2:0.596243 
2048 1:0.65451 2:0.653922 
2048 1:0.65451 2:0.653922 
2048 1:0.596929 2:0.596243 
2048 1:0.539347 2:0.538563 
2048 1:0.0786941 2:0.0771264 
2048 1:0.769674 2:0.769282 
2048 1:0.712092 2:0.711602 
2048 1:0.769674 2:0.769282 
2048 1:0.65451 2:0.653922 
2048 1:0.65451 2:0.653922 
2048 1:0.769674 2:0.769282 
2048 1:0.481765 2:0.480884 
2048 1:0.769674 2:0.769282 
2048 1:0.827255 2:0.826961 
2048 1:0.309021 2:0.307845 
2048 1:0.712092 2:0.711602 
2048 1:0.65451 2:0.653922 
2048 1:0.539347 2:0.538563 
2048 1:0.539347 2:0.538563 
2048 1:0.251439 2:0.250165 
2048 1:0.827255 2:0.826961 
2048 1:0.481765 2:0.480884 
2048 1:0.539347 2:0.538563 
2048 1:0.712092 2:0.711602 
2048 1:0.366602 2:0.365524 
2048 1:0.309021 2:0.307845 
2048 1:-0.43954 2:-0.44199 
2048 1:0.65451 2:0.653922 
2048 1:0.424184 2:0.423204 
2048 1:0.769674 2:0.769282 
2048 1:0.539347 2:0.538563 
2048 1:0.251439 2:0.250165 
2048 1:0.251439 2:0.250165 
2048 1:0.712092 2:0.711602 
2048 1:0.309021 2:0.307845 
2048 1:0.366602 2:0.365524 
2048 1:0.481765 2:0.480884 
2048 1:0.65451 2:0.653922 
2048 1:0.481765 2:0.480884 
2048 1:0.481765 2:0.480884 
2048 1:0.251439 2:0.250165 
2048 1:0.596929 2:0.596243 
2048 1:0.481765 2:0.480884 
2048 1:0.539347 2:0.538563 
2048 1:0.481765 2:0.480884 
2048 1:0.712092 2:0.711602 
2048 1:0.481765 2:0.480884 
2048 1:0.769674 2:0.769282 
2048 1:0.251439 2:0.250165 
2048 1:0.65451 2:0.653922 
2048 1:0.251439 2:0.250165 
2048 1:0.539347 2:0.538563 
2048 1:0.424184 2:0.423204 
2048 1:0.539347 2:0.538563 
2048 1:0.539347 2:0.538563 
2048 1:0.251439 2:0.250165 
2048 1:0.884837 2:0.884641 
2048 1:0.481765 2:0.480884 
2048 1:0.712092 2:0.711602 
2048 1:0.712092 2:0.711602 
2048 1:0.712092 2:0.711602 
2048 1:0.884837 2:0.884641 
2048 1:0.366602 2:0.365524 
2048 1:0.481765 2:0.480884 
2048 1:0.596929 2:0.596243 
2048 1:0.712092 2:0.711602 
2048 1:0.481765 2:0.480884 
2048 1:0.65451 2:0.653922 
2048 1:0.596929 2:0.596243 
2048 1:0.65451 2:0.653922 
2048 1:0.309021 2:0.307845 
2048 1:0.596929 2:0.596243 
2048 1:0.309021 2:0.307845 
2048 1:0.884837 2:0.884641 
2048 1:0.481765 2:0.480884 
2048 1:0.481765 2:0.480884 
2048 1:0.366602 2:0.365524 
2048 1:0.366602 2:0.365524 
2048 1:0.827255 2:0.826961 
2048 1:0.769674 2:0.769282 
2048 1:0.424184 2:0.423204 
2048 1:0.65451 2:0.653922 
2048 1:0.712092 2:0.711602 
2048 1:0.769674 2:0.769282 
2048 1:0.424184 2:0.423204 
2048 1:0.596929 2:0.596243 
2048 1:0.596929 2:0.596243 
2048 1:0.309021 2:0.307845 
2048 1:0.539347 2:0.538563 
2048 1:0.596929 2:0.596243 
2048 1:0.712092 2:0.711602 
2048 1:0.539347 2:0.538563 
2048 1:0.366602 2:0.365524 
2048 1:0.827255 2:0.826961 
2048 1:0.596929 2:0.596243 
2048 1:0.481765 2:0.480884 
2048 1:0.65451 2:0.653922 
2048 1:0.827255 2:0.826961 
2048 1:0.481765 2:0.480884 
2048 1:0.0786941 2:0.0771264 
2048 1:0.366602 2:0.365524 
2048 1:0.65451 2:0.653922 
2048 1:0.596929 2:0.596243 
2048 1:0.884837 2:0.884641 
2048 1:0.769674 2:0.769282 
2048 1:0.769674 2:0.769282 
2048 1:0.65451 2:0.653922 
2048 1:0.596929 2:0.596243 
2048 1:0.65451 2:0.653922 
2048 1:0.827255 2:0.826961 
2048 1:0.712092 2:0.711602 
2048 1:0.65451 2:0.653922 
2048 1:0.769674 2:0.769282 
2048 1:0.539347 2:0.538563 
2048 1:0.884837 2:0.884641 
2048 1:0.827255 2:0.826961 
2048 1:0.596929 2:0.596243 
2048 1:0.596929 2:0.596243 
2048 1:0.884837 2:0.884641 
2048 1:0.65451 2:0.653922 
2048 1:0.769674 2:0.769282 
2048 1:0.0786941 2:0.0771264 
2048 1:0.769674 2:0.769282 
2048 1:0.251439 2:0.250165 
2048 1:0.539347 2:0.538563 
2048 1:0.481765 2:0.480884 
2048 1:0.65451 2:0.653922 
2048 1:0.539347 2:0.538563 
2048 1:0.539347 2:0.538563 
2048 1:0.712092 2:0.711602 
2048 1:0.539347 2:0.538563 
2048 1:0.481765 2:0.480884 
2048 1:0.769674 2:0.769282 
2048 1:0.539347 2:0.538563 
2048 1:0.827255 2:0.826961 
2048 1:0.424184 2:0.423204 
2048 1:0.827255 2:0.826961 
2048 1:0.539347 2:0.538563 
2048 1:0.827255 2:0.826961 
2048 1:0.65451 2:0.653922 
2048 1:0.65451 2:0.653922 
2048 1:0.712092 2:0.711602 
2048 1:0.712092 2:0.711602 
2048 1:0.596929 2:0.596243 
2048 1:0.309021 2:0.307845 
2048 1:0.366602 2:0.365524 
2048 1:0.769674 2:0.769282 
2048 1:0.712092 2:0.711602 
2048 1:0.65451 2:0.653922 
2048 1:0.884837 2:0.884641 
2048 1:0.481765 2:0.480884 
2048 1:0.424184 2:0.423204 
2048 1:0.65451 2:0.653922 
2048 1:0.769674 2:0.769282 
2048 1:0.481765 2:0.480884 
2048 1:0.0786941 2:0.0771264 
2048 1:0.539347 2:0.538563 
2048 1:0.539347 2:0.538563 
2048 1:0.424184 2:0.423204 
2048 1:0.712092 2:0.711602 
2048 1:0.884837 2:0.884641 
2048 1:0.539347 2:0.538563 
2048 1:0.65451 2:0.653922 
2048 1:0.481765 2:0.480884 
2048 1:0.884837 2:0.884641 
2048 1:0.515729 2:0.504473 
2048 1:0.769674 2:0.769282 
2048 1:0.712092 2:0.711602 
2048 1:0.712092 2:0.711602 
2048 1:0.539347 2:0.538563 
2048 1:0.366602 2:0.365524 
2048 1:0.712092 2:0.711602 
2048 1:0.65451 2:0.653922 
2048 1:0.366602 2:0.365524 
2048 1:0.65451 2:0.653922 
2048 1:0.366602 2:0.365524 
2048 1:0.769674 2:0.769282 
2048 1:0.366602 2:0.365524 
2048 1:0.65451 2:0.653922 
2048 1:0.481765 2:0.480884 
2048 1:0.827255 2:0.826961 
2048 1:0.827255 2:0.826961 
2048 1:0.712092 2:0.711602 
2048 1:0.596929 2:0.596243 
2048 1:0.539347 2:0.538563 
2048 1:0.65451 2:0.653922 
2048 1:0.424184 2:0.423204 
2048 1:0.515729 2:0.504473 
2048 1:0.65451 2:0.653922 
2048 1:0.424184 2:0.423204 
2048 1:0.65451 2:0.653922 
2048 1:0.65451 2:0.653922 
2048 1:0.769674 2:0.769282 
2048 1:0.424184 2:0.423204 
2048 1:0.769674 2:0.769282 
2048 1:0.65451 2:0.653922 
2048 1:0.136276 2:0.134806 
2048 1:0.712092 2:0.711602 
2048 1:0.481765 2:0.480884 
2048 1:0.65451 2:0.653922 
2048 1:0.712092 2:0.711602 
2048 1:-0.43954 2:-0.44199 
2048 1:0.424184 2:0.423204 
2048 1:0.424184 2:0.423204 
2048 1:0.366602 2:0.365524 
2048 1:0.596929 2:0.596243 
2048 1:0.65451 2:0.653922 
2048 1:0.424184 2:0.423204 
2048 1:0.366602 2:0.365524 
2048 1:0.712092 2:0.711602 
2048 1:0.65451 2:0.653922 
2048 1:0.596929 2:0.596243 
2048 1:0.769674 2:0.769282 
2048 1:0.481765 2:0.480884 
2048 1:0.366602 2:0.365524 
2048 1:-0.0261241 2:-0.048734 
2048 1:0.827255 2:0.826961 
2048 1:0.596929 2:0.596243 
2048 1:0.481765 2:0.480884 
2048 1:-0.942418 2:-0.94232 
2048 1:0.539347 2:0.538563 
2048 1:0.193857 2:0.192486 
2048 1:0.769674 2:0.769282 
2048 1:0.193857 2:0.192486 
2048 1:0.424184 2:0.423204 
2048 1:0.596929 2:0.596243 
2048 1:0.712092 2:0.711602 
2048 1:0.481765 2:0.480884 
2048 1:0.309021 2:0.307845 
2048 1:0.65451 2:0.653922 
2048 1:0.769674 2:0.769282 
2048 1:0.515729 2:0.504473 
2048 1:0.65451 2:0.653922 
2048 1:0.366602 2:0.365524 
2048 1:0.481765 2:0.480884 
2048 1:-0.0940507 2:-0.0959124 
2048 1:0.309021 2:0.307845 
2048 1:0.827255 2:0.826961 
2048 1:0.827255 2:0.826961 
2048 1:0.251439 2:0.250165 
2048 1:0.65451 2:0.653922 
2048 1:0.539347 2:0.538563 
2048 1:0.193857 2:0.192486 
2048 1:0.769674 2:0.769282 
2048 1:0.596929 2:0.596243 
2048 1:0.827255 2:0.826961 
2048 1:0.712092 2:0.711602 
2048 1:0.596929 2:0.596243 
2048 1:0.366602 2:0.365524 
2048 1:0.596929 2:0.596243 
2048 1:0.596929 2:0.596243 
2048 1:0.193857 2:0.192486 
2048 1:0.712092 2:0.711602 
2048 1:0.65451 2:0.653922 
2048 1:0.596929 2:0.596243 
2048 1:0.827255 2:0.826961 
2048 1:0.827255 2:0.826961 
2048 1:0.424184 2:0.423204 
2048 1:0.712092 2:0.711602 
2048 1:0.712092 2:0.711602 
2048 1:0.712092 2:0.711602 
2048 1:0.769674 2:0.769282 
2048 1:0.309021 2:0.307845 
2048 1:0.827255 2:0.826961 
2048 1:0.481765 2:0.480884 
2048 1:0.596929 2:0.596243 
2048 1:0.136276 2:0.134806 
2048 1:0.309021 2:0.307845 
2048 1:0.596929 2:0.596243 
2048 1:0.65451 2:0.653922 
2048 1:0.769674 2:0.769282 
2048 1:0.0786941 2:0.0771264 
2048 1:0.65451 2:0.653922 
2048 1:0.596929 2:0.596243 
2048 1:0.596929 2:0.596243 
2048 1:0.712092 2:0.711602 
2048 1:0.712092 2:0.711602 
2048 1:0.481765 2:0.480884 
2048 1:0.539347 2:0.538563 
2048 1:0.65451 2:0.653922 
2048 1:0.827255 2:0.826961 
2048 1:0.309021 2:0.307845 
2048 1:0.366602 2:0.365524 
2048 1:0.596929 2:0.596243 
2048 1:0.65451 2:0.653922 
2048 1:0.424184 2:0.423204 
2048 1:0.424184 2:0.423204 
2048 1:0.481765 2:0.480884 
2048 1:0.712092 2:0.711602 
2048 1:0.769674 2:0.769282 
2048 1:0.539347 2:0.538563 
2048 1:0.193857 2:0.192486 
2048 1:0.481765 2:0.480884 
2048 1:0.769674 2:0.769282 
2048 1:0.65451 2:0.653922 
2048 1:0.193857 2:0.192486 
2048 1:0.712092 2:0.711602 
2048 1:0.596929 2:0.596243 
2048 1:0.65451 2:0.653922 
2048 1:0.481765 2:0.480884 
2048 1:0.712092 2:0.711602 
2048 1:0.712092 2:0.711602 
2048 1:0.539347 2:0.538563 
2048 1:0.596929 2:0.596243 
2048 1:0.481765 2:0.480884 
2048 1:0.65451 2:0.653922 
2048 1:0.424184 2:0.423204 
2048 1:0.827255 2:0.826961 
2048 1:0.481765 2:0.480884 
2048 1:0.769674 2:0.769282 
2048 1:0.424184 2:0.423204 
2048 1:0.596929 2:0.596243 
2048 1:0.193857 2:0.192486 
2048 1:0.596929 2:0.596243 
2048 1:0.712092 2:0.711602 
2048 1:0.65451 2:0.653922 
2048 1:0.481765 2:0.480884 
2048 1:0.827255 2:0.826961 
2048 1:0.481765 2:0.480884 
2048 1:0.309021 2:0.307845 
2048 1:0.596929 2:0.596243 
2048 1:0.65451 2:0.653922 
2048 1:0.769674 2:0.769282 
2048 1:0.688474 2:0.677512 
2048 1:0.769674 2:0.769282 
2048 1:0.769674 2:0.769282 
2048 1:0.827255 2:0.826961 
2048 1:0.827255 2:0.826961 
2048 1:0.481765 2:0.480884 
2048 1:0.769674 2:0.769282 
2048 1:0.65451 2:0.653922 
2048 1:0.0786941 2:0.0771264 
2048 1:0.769674 2:0.769282 
2048 1:0.712092 2:0.711602 
2048 1:0.827255 2:0.826961 
2048 1:0.769674 2:0.769282 
2048 1:0.827255 2:0.826961 
2048 1:0.65451 2:0.653922 
2048 1:0.596929 2:0.596243 
2048 1:0.596929 2:0.596243 
2048 1:0.712092 2:0.711602 
2048 1:0.251439 2:0.250165 
2048 1:0.596929 2:0.596243 
2048 1:0.481765 2:0.480884 
2048 1:0.827255 2:0.826961 
2048 1:0.251439 2:0.250165 
2048 1:0.539347 2:0.538563 
2048 1:0.65451 2:0.653922 
2048 1:0.65451 2:0.653922 
2048 1:0.251439 2:0.250165 
2048 1:0.596929 2:0.596243 
2048 1:0.136276 2:0.134806 
2048 1:0.539347 2:0.538563 
2048 1:0.424184 2:0.423204 
2048 1:0.769674 2:0.769282 
2048 1:0.481765 2:0.480884 
2048 1:0.539347 2:0.538563 
2048 1:0.136276 2:0.134806 
2048 1:0.65451 2:0.653922 
2048 1:0.596929 2:0.596243 
2048 1:0.712092 2:0.711602 
2048 1:0.65451 2:0.653922 
2048 1:0.136276 2:0.134806 
2048 1:0.481765 2:0.480884 
2048 1:0.596929 2:0.596243 
2048 1:0.712092 2:0.711602 
2048 1:0.539347 2:0.538563 
2048 1:0.366602 2:0.365524 
2048 1:0.596929 2:0.596243 
2048 1:0.769674 2:0.769282 
2048 1:0.309021 2:0.307845 
2048 1:0.769674 2:0.769282 
2048 1:0.827255 2:0.826961 
2048 1:0.827255 2:0.826961 
2048 1:0.0786941 2:0.0771264 
2048 1:0.251439 2:0.250165 
2048 1:0.712092 2:0.711602 
2048 1:0.712092 2:0.711602 
2048 1:0.424184 2:0.423204 
2048 1:0.827255 2:0.826961 
2048 1:0.65451 2:0.653922 
2048 1:0.65451 2:0.653922 
2048 1:0.769674 2:0.769282 
2048 1:0.481765 2:0.480884 
2048 1:0.65451 2:0.653922 
2048 1:0.712092 2:0.711602 
2048 1:0.481765 2:0.480884 
2048 1:0.596929 2:0.596243 
2048 1:0.424184 2:0.423204 
2048 1:0.481765 2:0.480884 
2048 1:0.769674 2:0.769282 
2048 1:0.481765 2:0.480884 
2048 1:0.481765 2:0.480884 
2048 1:0.481765 2:0.480884 
2048 1:0.539347 2:0.538563 
2048 1:0.712092 2:0.711602 
2048 1:0.424184 2:0.423204 
2048 1:0.539347 2:0.538563 
2048 1:0.884837 2:0.884641 
2048 1:0.769674 2:0.769282 
2048 1:0.712092 2:0.711602 
2048 1:0.65451 2:0.653922 
2048 1:0.596929 2:0.596243 
2048 1:0.827255 2:0.826961 
2048 1:-0.0364691 2:-0.0382328 
2048 1:0.193857 2:0.192486 
2048 1:0.596929 2:0.596243 
2048 1:0.481765 2:0.480884 
2048 1:0.424184 2:0.423204 
2048 1:0.596929 2:0.596243 
2048 1:0.136276 2:0.134806 
2048 1:0.539347 2:0.538563 
2048 1:0.712092 2:0.711602 
2048 1:0.65451 2:0.653922 
2048 1:0.65451 2:0.653922 
2048 1:0.884837 2:0.884641 
2048 1:0.539347 2:0.538563 
2048 1:0.827255 2:0.826961 
2048 1:0.539347 2:0.538563 
2048 1:0.712092 2:0.711602 
2048 1:0.596929 2:0.596243 
2048 1:0.712092 2:0.711602 
2048 1:0.884837 2:0.884641 
2048 1:0.0786941 2:0.0771264 
2048 1:0.712092 2:0.711602 
2048 1:0.827255 2:0.826961 
2048 1:0.712092 2:0.711602 
2048 1:0.827255 2:0.826961 
2048 1:0.65451 2:0.653922 
2048 1:0.827255 2:0.826961 
2048 1:0.827255 2:0.826961 
2048 1:0.712092 2:0.711602 
2048 1:0.596929 2:0.596243 
2048 1:0.539347 2:0.538563 
2048 1:0.596929 2:0.596243 
2048 1:0.827255 2:0.826961 
2048 1:0.712092 2:0.711602 
2048 1:0.712092 2:0.711602 
2048 1:0.424184 2:0.423204 
2048 1:0.827255 2:0.826961 
2048 1:0.65451 2:0.653922 
2048 1:0.827255 2:0.826961 
2048 1:0.884837 2:0.884641 
2048 1:0.65451 2:0.653922 
2048 1:0.596929 2:0.596243 
2048 1:0.424184 2:0.423204 
2048 1:0.827255 2:0.826961 
2048 1:0.712092 2:0.711602 
2048 1:0.884837 2:0.884641 
2048 1:0.769674 2:0.769282 
2048 1:0.65451 2:0.653922 
2048 1:0.596929 2:0.596243 
2048 1:0.884837 2:0.884641 
2048 1:0.769674 2:0.769282 
2048 1:0.827255 2:0.826961 
2048 1:0.65451 2:0.653922 
2048 1:0.712092 2:0.711602 
2048 1:0.65451 2:0.653922 
2048 1:0.712092 2:0.711602 
2048 1:0.539347 2:0.538563 
2048 1:0.309021 2:0.307845 
2048 1:0.424184 2:0.423204 
2048 1:0.827255 2:0.826961 
2048 1:0.251439 2:0.250165 
2048 1:0.424184 2:0.423204 
2048 1:0.539347 2:0.538563 
2048 1:0.539347 2:0.538563 
2048 1:0.136276 2:0.134806 
2048 1:0.827255 2:0.826961 
2048 1:0.481765 2:0.480884 
2048 1:0.827255 2:0.826961 
2048 1:0.539347 2:0.538563 
2048 1:0.424184 2:0.423204 
2048 1:0.193857 2:0.192486 
2048 1:0.309021 2:0.307845 
2048 1:0.827255 2:0.826961 
2048 1:0.424184 2:0.423204 
2048 1:0.712092 2:0.711602 
2048 1:0.596929 2:0.596243 
2048 1:0.712092 2:0.711602 
2048 1:0.481765 2:0.480884 
2048 1:0.539347 2:0.538563 
2048 1:0.424184 2:0.423204 
2048 1:0.769674 2:0.769282 
2048 1:0.65451 2:0.653922 
2048 1:0.596929 2:0.596243 
2048 1:0.65451 2:0.653922 
2048 1:0.827255 2:0.826961 
2048 1:0.712092 2:0.711602 
2048 1:0.136276 2:0.134806 
2048 1:0.65451 2:0.653922 
2048 1:0.769674 2:0.769282 
2048 1:0.884837 2:0.884641 
2048 1:0.424184 2:0.423204 
2048 1:0.366602 2:0.365524 
2048 1:0.712092 2:0.711602 
2048 1:0.539347 2:0.538563 
2048 1:0.827255 2:0.826961 
2048 1:0.424184 2:0.423204 
2048 1:0.769674 2:0.769282 
2048 1:0.65451 2:0.653922 
2048 1:0.539347 2:0.538563 
2048 1:0.539347 2:0.538563 
2048 1:0.65451 2:0.653922 
2048 1:0.596929 2:0.596243 
2048 1:0.712092 2:0.711602 
2048 1:0.884837 2:0.884641 
2048 1:0.65451 2:0.653922 
2048 1:0.712092 2:0.711602 
2048 1:0.65451 2:0.653922 
2048 1:0.424184 2:0.423204 
2048 1:0.769674 2:0.769282 
2048 1:0.769674 2:0.769282 
2048 1:0.424184 2:0.423204 
2048 1:0.424184 2:0.423204 
2048 1:0.769674 2:0.769282 
2048 1:0.481765 2:0.480884 
2048 1:0.65451 2:0.653922 
2048 1:0.424184 2:0.423204 
2048 1:0.193857 2:0.192486 
2048 1:0.596929 2:0.596243 
2048 1:0.65451 2:0.653922 
2048 1:0.65451 2:0.653922 
2048 1:0.769674 2:0.769282 
2048 1:0.481765 2:0.480884 
2048 1:0.596929 2:0.596243 
2048 1:0.596929 2:0.596243 
2048 1:0.712092 2:0.711602 
2048 1:0.596929 2:0.596243 
2048 1:0.712092 2:0.711602 
2048 1:0.481765 2:0.480884 
2048 1:0.481765 2:0.480884 
2048 1:-0.266796 2:-0.268951 
2048 1:0.65451 2:0.653922 
2048 1:0.827255 2:0.826961 
2048 1:0.424184 2:0.423204 
2048 1:0.539347 2:0.538563 
2048 1:0.424184 2:0.423204 
2048 1:0.481765 2:0.480884 
2048 1:0.827255 2:0.826961 
2048 1:0.769674 2:0.769282 
2048 1:-0.151632 2:-0.153592 
2048 1:0.884837 2:0.884641 
2048 1:0.251439 2:0.250165 
2048 1:0.424184 2:0.423204 
2048 1:0.481765 2:0.480884 
2048 1:0.251439 2:0.250165 
2048 1:0.539347 2:0.538563 
2048 1:0.769674 2:0.769282 
2048 1:0.366602 2:0.365524 
2048 1:0.136276 2:0.134806 
2048 1:0.539347 2:0.538563 
2048 1:0.827255 2:0.826961 
2048 1:0.596929 2:0.596243 
2048 1:0.366602 2:0.365524 
2048 1:0.309021 2:0.307845 
2048 1:0.424184 2:0.423204 
2048 1:0.769674 2:0.769282 
2048 1:0.769674 2:0.769282 
2048 1:0.712092 2:0.711602 
2048 1:0.712092 2:0.711602 
2048 1:0.712092 2:0.711602 
2048 1:0.65451 2:0.653922 
2048 1:0.596929 2:0.596243 
2048 1:0.366602 2:0.365524 
2048 1:0.65451 2:0.653922 
2048 1:0.884837 2:0.884641 
2048 1:0.827255 2:0.826961 
2048 1:0.309021 2:0.307845 
2048 1:0.481765 2:0.480884 
2048 1:0.481765 2:0.480884 
2048 1:0.65451 2:0.653922 
2048 1:0.539347 2:0.538563 
2048 1:0.712092 2:0.711602 
2048 1:0.827255 2:0.826961 
2048 1:0.769674 2:0.769282 
2048 1:0.481765 2:0.480884 
2048 1:0.65451 2:0.653922 
2048 1:0.712092 2:0.711602 
2048 1:0.539347 2:0.538563 
2048 1:0.769674 2:0.769282 
2048 1:0.827255 2:0.826961 
2048 1:0.366602 2:0.365524 
2048 1:0.539347 2:0.538563 
2048 1:0.884837 2:0.884641 
2048 1:0.193857 2:0.192486 
2048 1:0.596929 2:0.596243 
2048 1:0.366602 2:0.365524 
2048 1:0.712092 2:0.711602 
2048 1:0.136276 2:0.134806 
2048 1:0.712092 2:0.711602 
2048 1:0.539347 2:0.538563 
2048 1:0.884837 2:0.884641 
2048 1:0.596929 2:0.596243 
2048 1:0.827255 2:0.826961 
2048 1:0.712092 2:0.711602 
2048 1:0.424184 2:0.423204 
2048 1:0.366602 2:0.365524 
2048 1:0.65451 2:0.653922 
2048 1:0.769674 2:0.769282 
2048 1:0.424184 2:0.423204 
2048 1:0.539347 2:0.538563 
2048 1:0.65451 2:0.653922 
2048 1:0.65451 2:0.653922 
2048 1:0.0211125 2:0.0194468 
2048 1:0.309021 2:0.307845 
2048 1:0.827255 2:0.826961 
2048 1:0.712092 2:0.711602 
2048 1:0.769674 2:0.769282 
2048 1:0.884837 2:0.884641 
2048 1:0.712092 2:0.711602 
2048 1:0.596929 2:0.596243 
2048 1:0.827255 2:0.826961 
2048 1:0.481765 2:0.480884 
2048 1:0.769674 2:0.769282 
2048 1:0.596929 2:0.596243 
2048 1:0.596929 2:0.596243 
2048 1:0.827255 2:0.826961 
2048 1:0.65451 2:0.653922 
2048 1:0.65451 2:0.653922 
2048 1:0.65451 2:0.653922 
2048 1:0.65451 2:0.653922 
2048 1:0.596929 2:0.596243 
2048 1:0.712092 2:0.711602 
2048 1:0.884837 2:0.884641 
2048 1:0.481765 2:0.480884 
2048 1:0.712092 2:0.711602 
2048 1:0.65451 2:0.653922 
2048 1:0.712092 2:0.711602 
2048 1:0.712092 2:0.711602 
2048 1:0.712092 2:0.711602 
2048 1:0.712092 2:0.711602 
2048 1:0.712092 2:0.711602 
2048 1:0.539347 2:0.538563 
2048 1:0.366602 2:0.365524 
2048 1:0.827255 2:0.826961 
2048 1:0.65451 2:0.653922 
2048 1:0.424184 2:0.423204 
2048 1:0.884837 2:0.884641 
2048 1:0.65451 2:0.653922 
2048 1:0.884837 2:0.884641 
2048 1:0.712092 2:0.711602 
2048 1:0.251439 2:0.250165 
2048 1:0.0786941 2:0.0771264 
2048 1:0.309021 2:0.307845 
2048 1:0.712092 2:0.711602 
2048 1:0.251439 2:0.250165 
2048 1:0.65451 2:0.653922 
2048 1:0.827255 2:0.826961 
2048 1:0.769674 2:0.769282 
2048 1:0.596929 2:0.596243 
2048 1:0.769674 2:0.769282 
2048 1:0.65451 2:0.653922 
2048 1:0.769674 2:0.769282 
2048 1:0.884837 2:0.884641 
2048 1:0.884837 2:0.884641 
2048 1:0.596929 2:0.596243 
2048 1:0.65451 2:0.653922 
2048 1:0.596929 2:0.596243 
2048 1:0.827255 2:0.826961 
2048 1:0.712092 2:0.711602 
2048 1:0.884837 2:0.884641 
2048 1:0.827255 2:0.826961 
2048 1:0.827255 2:0.826961 
2048 1:0.827255 2:0.826961 
2048 1:0.827255 2:0.826961 
2048 1:0.366602 2:0.365524 
2048 1:0.827255 2:0.826961 
2048 1:0.65451 2:0.653922 
2048 1:0.769674 2:0.769282 
2048 1:0.65451 2:0.653922 
2048 1:0.596929 2:0.596243 
2048 1:0.481765 2:0.480884 
2048 1:0.539347 2:0.538563 
2048 1:0.251439 2:0.250165 
2048 1:0.827255 2:0.826961 
2048 1:0.309021 2:0.307845 
2048 1:0.539347 2:0.538563 
2048 1:0.65451 2:0.653922 
2048 1:0.251439 2:0.250165 
2048 1:0.539347 2:0.538563 
2048 1:0.481765 2:0.480884 
2048 1:0.712092 2:0.711602 
2048 1:0.251439 2:0.250165 
2048 1:0.596929 2:0.596243 
2048 1:0.481765 2:0.480884 
2048 1:0.539347 2:0.538563 
2048 1:0.769674 2:0.769282 
2048 1:0.596929 2:0.596243 
2048 1:0.827255 2:0.826961 
2048 1:0.596929 2:0.596243 
2048 1:0.712092 2:0.711602 
2048 1:0.366602 2:0.365524 
2048 1:0.424184 2:0.423204 
2048 1:0.712092 2:0.711602 
2048 1:0.424184 2:0.423204 
2048 1:0.136276 2:0.134806 
2048 1:0.712092 2:0.711602 
2048 1:0.712092 2:0.711602 
2048 1:0.884837 2:0.884641 
2048 1:0.539347 2:0.538563 
2048 1:0.424184 2:0.423204 
2048 1:0.65451 2:0.653922 
2048 1:0.65451 2:0.653922 
2048 1:0.65451 2:0.653922 
2048 1:0.884837 2:0.884641 
2048 1:0.884837 2:0.884641 
2048 1:0.827255 2:0.826961 
2048 1:0.481765 2:0.480884 
2048 1:0.481765 2:0.480884 
2048 1:0.827255 2:0.826961 
2048 1:0.827255 2:0.826961 
2048 1:0.65451 2:0.653922 
2048 1:0.309021 2:0.307845 
2048 1:0.481765 2:0.480884 
2048 1:0.769674 2:0.769282 
2048 1:0.712092 2:0.711602 
2048 1:0.65451 2:0.653922 
2048 1:0.827255 2:0.826961 
2048 1:0.596929 2:0.596243 
2048 1:0.712092 2:0.711602 
2048 1:0.481765 2:0.480884 
2048 1:0.712092 2:0.711602 
2048 1:0.539347 2:0.538563 
2048 1:0.65451 2:0.653922 
2048 1:0.481765 2:0.480884 
2048 1:0.712092 2:0.711602 
2048 1:0.251439 2:0.250165 
2048 1:0.884837 2:0.884641 
2048 1:0.309021 2:0.307845 
2048 1:0.769674 2:0.769282 
2048 1:0.366602 2:0.365524 
2048 1:0.309021 2:0.307845 
2048 1:0.712092 2:0.711602 
2048 1:0.769674 2:0.769282 
2048 1:0.712092 2:0.711602 
2048 1:0.309021 2:0.307845 
2048 1:0.65451 2:0.653922 
2048 1:0.309021 2:0.307845 
2048 1:0.539347 2:0.538563 
2048 1:0.712092 2:0.711602 
2048 1:0.481765 2:0.480884 
2048 1:0.827255 2:0.826961 
2048 1:0.481765 2:0.480884 
2048 1:0.884837 2:0.884641 
2048 1:0.827255 2:0.826961 
2048 1:0.366602 2:0.365524 
2048 1:0.539347 2:0.538563 
2048 1:0.827255 2:0.826961 
2048 1:0.251439 2:0.250165 
2048 1:0.827255 2:0.826961 
2048 1:0.539347 2:0.538563 
2048 1:0.481765 2:0.480884 
2048 1:0.481765 2:0.480884 
2048 1:0.884837 2:0.884641 
2048 1:0.712092 2:0.711602 
2048 1:0.712092 2:0.711602 
2048 1:0.596929 2:0.596243 
2048 1:0.309021 2:0.307845 
2048 1:0.712092 2:0.711602 
2048 1:0.65451 2:0.653922 
2048 1:0.712092 2:0.711602 
2048 1:0.539347 2:0.538563 
2048 1:0.712092 2:0.711602 
2048 1:0.596929 2:0.596243 
2048 1:0.65451 2:0.653922 
2048 1:0.539347 2:0.538563 
2048 1:0.424184 2:0.423204 
2048 1:0.424184 2:0.423204 
2048 1:0.769674 2:0.769282 
2048 1:0.769674 2:0.769282 
2048 1:0.769674 2:0.769282 
2048 1:0.769674 2:0.769282 
2048 1:0.769674 2:0.769282 
2048 1:0.827255 2:0.826961 
2048 1:0.712092 2:0.711602 
2048 1:0.884837 2:0.884641 
2048 1:0.712092 2:0.711602 
2048 1:0.712092 2:0.711602 
2048 1:0.309021 2:0.307845 
2048 1:0.884837 2:0.884641 
2048 1:-0.0940507 2:-0.0959124 
2048 1:0.366602 2:0.365524 
2048 1:0.712092 2:0.711602 
2048 1:0.884837 2:0.884641 
2048 1:0.769674 2:0.769282 
2048 1:0.481765 2:0.480884 
2048 1:0.539347 2:0.538563 
2048 1:0.827255 2:0.826961 
2048 1:0.539347 2:0.538563 
2048 1:0.366602 2:0.365524 
2048 1:0.539347 2:0.538563 
2048 1:0.827255 2:0.826961 
2048 1:0.769674 2:0.769282 
2048 1:0.539347 2:0.538563 
2048 1:0.769674 2:0.769282 
2048 1:0.596929 2:0.596243 
2048 1:0.481765 2:0.480884 
2048 1:0.827255 2:0.826961 
2048 1:0.481765 2:0.480884 
2048 1:0.424184 2:0.423204 
2048 1:0.481765 2:0.480884 
2048 1:0.65451 2:0.653922 
2048 1:0.481765 2:0.480884 
2048 1:0.65451 2:0.653922 
2048 1:0.769674 2:0.769282 
2048 1:0.596929 2:0.596243 
2048 1:0.712092 2:0.711602 
2048 1:0.539347 2:0.538563 
2048 1:0.193857 2:0.192486 
2048 1:0.65451 2:0.653922 
2048 1:0.769674 2:0.769282 
2048 1:0.481765 2:0.480884 
2048 1:0.424184 2:0.423204 
2048 1:0.539347 2:0.538563 
2048 1:0.769674 2:0.769282 
2048 1:0.712092 2:0.711602 
2048 1:0.827255 2:0.826961 
2048 1:0.827255 2:0.826961 
2048 1:0.884837 2:0.884641 
2048 1:0.596929 2:0.596243 
2048 1:0.596929 2:0.596243 
2048 1:0.827255 2:0.826961 
2048 1:0.539347 2:0.538563 
2048 1:0.193857 2:0.192486 
2048 1:0.424184 2:0.423204 
2048 1:0.481765 2:0.480884 
2048 1:0.539347 2:0.538563 
2048 1:0.539347 2:0.538563 
2048 1:0.539347 2:0.538563 
2048 1:0.539347 2:0.538563 
2048 1:0.424184 2:0.423204 
2048 1:0.65451 2:0.653922 
2048 1:0.424184 2:0.423204 
2048 1:0.712092 2:0.711602 
2048 1:0.366602 2:0.365524 
2048 1:0.712092 2:0.711602 
2048 1:0.712092 2:0.711602 
2048 1:0.596929 2:0.596243 
2048 1:0.366602 2:0.365524 
2048 1:0.769674 2:0.769282 
2048 1:0.193857 2:0.192486 
2048 1:0.712092 2:0.711602 
2048 1:0.481765 2:0.480884 
2048 1:0.136276 2:0.134806 
2048 1:0.424184 2:0.423204 
2048 1:0.712092 2:0.711602 
2048 1:0.827255 2:0.826961 
2048 1:0.827255 2:0.826961 
2048 1:0.424184 2:0.423204 
2048 1:0.712092 2:0.711602 
2048 1:0.0786941 2:0.0771264 
2048 1:0.827255 2:0.826961 
2048 1:0.712092 2:0.711602 
2048 1:0.366602 2:0.365524 
2048 1:0.769674 2:0.769282 
2048 1:0.827255 2:0.826961 
2048 1:0.424184 2:0.423204 
2048 1:0.539347 2:0.538563 
2048 1:0.827255 2:0.826961 
2048 1:0.827255 2:0.826961 
2048 1:0.712092 2:0.711602 
2048 1:0.884837 2:0.884641 
2048 1:0.309021 2:0.307845 
2048 1:0.251439 2:0.250165 
2048 1:0.596929 2:0.596243 
2048 1:0.424184 2:0.423204 
2048 1:0.539347 2:0.538563 
2048 1:0.481765 2:0.480884 
2048 1:0.884837 2:0.884641 
2048 1:0.366602 2:0.365524 
2048 1:0.712092 2:0.711602 
2048 1:0.769674 2:0.769282 
2048 1:0.769674 2:0.769282 
2048 1:0.251439 2:0.250165 
2048 1:0.884837 2:0.884641 
2048 1:0.251439 2:0.250165 
2048 1:0.481765 2:0.480884 
2048 1:0.481765 2:0.480884 
2048 1:0.366602 2:0.365524 
2048 1:0.65451 2:0.653922 
2048 1:0.309021 2:0.307845 
2048 1:0.827255 2:0.826961 
2048 1:0.596929 2:0.596243 
2048 1:0.712092 2:0.711602 
2048 1:0.884837 2:0.884641 
2048 1:0.424184 2:0.423204 
2048 1:0.596929 2:0.596243 
2048 1:0.596929 2:0.596243 
2048 1:0.65451 2:0.653922 
2048 1:0.712092 2:0.711602 
2048 1:0.884837 2:0.884641 
2048 1:0.65451 2:0.653922 
2048 1:0.65451 2:0.653922 
2048 1:0.65451 2:0.653922 
2048 1:0.884837 2:0.884641 
2048 1:0.712092 2:0.711602 
2048 1:0.884837 2:0.884641 
2048 1:0.539347 2:0.538563 
2048 1:0.769674 2:0.769282 
2048 1:0.884837 2:0.884641 
2048 1:0.481765 2:0.480884 
2048 1:0.424184 2:0.423204 
2048 1:0.251439 2:0.250165 
2048 1:0.884837 2:0.884641 
2048 1:0.366602 2:0.365524 
2048 1:0.884837 2:0.884641 
2048 1:0.769674 2:0.769282 
2048 1:0.65451 2:0.653922 
2048 1:0.65451 2:0.653922 
2048 1:0.0211125 2:0.0194468 
2048 1:0.65451 2:0.653922 
2048 1:0.481765 2:0.480884 
2048 1:0.769674 2:0.769282 
2048 1:0.65451 2:0.653922 
2048 1:0.712092 2:0.711602 
2048 1:0.481765 2:0.480884 
2048 1:0.712092 2:0.711602 
2048 1:0.65451 2:0.653922 
2048 1:0.769674 2:0.769282 
2048 1:0.769674 2:0.769282 
2048 1:0.309021 2:0.307845 
2048 1:0.884837 2:0.884641 
2048 1:0.539347 2:0.538563 
-2048 1:0.539347 2:0.538563 
-2048 1:0.712092 2:0.711602 
-2048 1:0.366602 2:0.365524 
-2048 1:0.309021 2:0.307845 
-2048 1:0.366602 2:0.365524 
-2048 1:0.251439 2:0.250165 
-2048 1:0.481765 2:0.480884 
-2048 1:0.65451 2:0.653922 
-2048 1:0.769674 2:0.769282 
-2048 1:0.827255 2:0.826961 
-2048 1:0.769674 2:0.769282 
-2048 1:0.769674 2:0.769282 
-2048 1:0.769674 2:0.769282 
-2048 1:0.596929 2:0.596243 
-2048 1:0.366602 2:0.365524 
-2048 1:0.65451 2:0.653922 
-2048 1:0.424184 2:0.423204 
-2048 1:0.884837 2:0.884641 
-2048 1:0.712092 2:0.711602 
-2048 1:0.65451 2:0.653922 
-2048 1:0.251439 2:0.250165 
-2048 1:0.769674 2:0.769282 
-2048 1:0.827255 2:0.826961 
-2048 1:0.827255 2:0.826961 
-2048 1:0.481765 2:0.480884 
-2048 1:0.481765 2:0.480884 
-2048 1:0.596929 2:0.596243 
-2048 1:0.712092 2:0.711602 
-2048 1:0.712092 2:0.711602 
-2048 1:0.712092 2:0.711602 
-2048 1:0.596929 2:0.596243 
-2048 1:0.596929 2:0.596243 
-2048 1:0.769674 2:0.769282 
-2048 1:0.481765 2:0.480884 
-2048 1:0.596929 2:0.596243 
-2048 1:0.65451 2:0.653922 
-2048 1:0.596929 2:0.596243 
-2048 1:0.251439 2:0.250165 
-2048 1:0.769674 2:0.769282 
-2048 1:0.769674 2:0.769282 
-2048 1:0.193857 2:0.192486 
-2048 1:0.827255 2:0.826961 
-2048 1:0.712092 2:0.711602 
-2048 1:0.712092 2:0.711602 
-2048 1:0.65451 2:0.653922 
-2048 1:0.539347 2:0.538563 
-2048 1:0.596929 2:0.596243 
-2048 1:0.481765 2:0.480884 
-2048 1:0.596929 2:0.596243 
-2048 1:0.481765 2:0.480884 
-2048 1:0.366602 2:0.365524 
-2048 1:0.65451 2:0.653922 
-2048 1:0.424184 2:0.423204 
-2048 1:0.481765 2:0.480884 
-2048 1:0.65451 2:0.653922 
-2048 1:0.827255 2:0.826961 
-2048 1:0.539347 2:0.538563 
-2048 1:0.827255 2:0.826961 
-2048 1:0.769674 2:0.769282 
-2048 1:0.884837 2:0.884641 
-2048 1:0.65451 2:0.653922 
-2048 1:0.712092 2:0.711602 
-2048 1:0.827255 2:0.826961 
-2048 1:0.309021 2:0.307845 
-2048 1:0.366602 2:0.365524 
-2048 1:0.251439 2:0.250165 
-2048 1:0.366602 2:0.365524 
-2048 1:0.424184 2:0.423204 
-2048 1:0.65451 2:0.653922 
-2048 1:0.481765 2:0.480884 
-2048 1:0.596929 2:0.596243 
-2048 1:0.481765 2:0.480884 
-2048 1:0.539347 2:0.538563 
-2048 1:0.65451 2:0.653922 
-2048 1:0.481765 2:0.480884 
-2048 1:0.596929 2:0.596243 
-2048 1:0.539347 2:0.538563 
-2048 1:0.827255 2:0.826961 
-2048 1:0.712092 2:0.711602 
-2048 1:0.309021 2:0.307845 
-2048 1:0.712092 2:0.711602 
-2048 1:0.309021 2:0.307845 
-2048 1:0.193857 2:0.192486 
-2048 1:0.827255 2:0.826961 
-2048 1:0.769674 2:0.769282 
-2048 1:0.539347 2:0.538563 
-2048 1:0.769674 2:0.769282 
-2048 1:0.596929 2:0.596243 
-2048 1:0.769674 2:0.769282 
-2048 1:0.65451 2:0.653922 
-2048 1:0.424184 2:0.423204 
-2048 1:0.251439 2:0.250165 
-2048 1:0.65451 2:0.653922 
-2048 1:0.712092 2:0.711602 
-2048 1:0.481765 2:0.480884 
-2048 1:0.65451 2:0.653922 
-2048 1:0.712092 2:0.711602 
-2048 1:0.366602 2:0.365524 
-2048 1:0.769674 2:0.769282 
-2048 1:0.65451 2:0.653922 
-2048 1:0.65451 2:0.653922 
-2048 1:0.65451 2:0.653922 
-2048 1:0.769674 2:0.769282 
-2048 1:0.884837 2:0.884641 
-2048 1:0.65451 2:0.653922 
-2048 1:0.481765 2:0.480884 
-2048 1:0.65451 2:0.653922 
-2048 1:0.884837 2:0.884641 
-2048 1:0.596929 2:0.596243 
-2048 1:0.539347 2:0.538563 
-2048 1:0.309021 2:0.307845 
-2048 1:0.309021 2:0.307845 
-2048 1:0.596929 2:0.596243 
-2048 1:0.309021 2:0.307845 
-2048 1:0.424184 2:0.423204 
-2048 1:0.769674 2:0.769282 
-2048 1:0.481765 2:0.480884 
-2048 1:0.712092 2:0.711602 
-2048 1:0.539347 2:0.538563 
-2048 1:0.769674 2:0.769282 
-2048 1:0.251439 2:0.250165 
-2048 1:0.65451 2:0.653922 
-2048 1:0.769674 2:0.769282 
-2048 1:0.539347 2:0.538563 
-2048 1:0.712092 2:0.711602 
-2048 1:0.596929 2:0.596243 
-2048 1:0.596929 2:0.596243 
-2048 1:0.596929 2:0.596243 
-2048 1:0.884837 2:0.884641 
-2048 1:0.712092 2:0.711602 
-2048 1:0.539347 2:0.538563 
-2048 1:0.424184 2:0.423204 
-2048 1:0.424184 2:0.423204 
-2048 1:0.539347 2:0.538563 
-2048 1:0.65451 2:0.653922 
-2048 1:0.309021 2:0.307845 
-2048 1:0.193857 2:0.192486 
-2048 1:0.827255 2:0.826961 
-2048 1:0.712092 2:0.711602 
-2048 1:0.827255 2:0.826961 
-2048 1:0.251439 2:0.250165 
-2048 1:0.539347 2:0.538563 
-2048 1:0.481765 2:0.480884 
-2048 1:0.539347 2:0.538563 
-2048 1:0.65451 2:0.653922 
-2048 1:0.539347 2:0.538563 
-2048 1:0.65451 2:0.653922 
-2048 1:0.366602 2:0.365524 
-2048 1:0.596929 2:0.596243 
-2048 1:0.596929 2:0.596243 
-2048 1:0.65451 2:0.653922 
-2048 1:0.596929 2:0.596243 
-2048 1:0.193857 2:0.192486 
-2048 1:0.539347 2:0.538563 
-2048 1:0.481765 2:0.480884 
-2048 1:0.769674 2:0.769282 
-2048 1:0.539347 2:0.538563 
-2048 1:0.366602 2:0.365524 
-2048 1:0.481765 2:0.480884 
-2048 1:0.827255 2:0.826961 
-2048 1:0.596929 2:0.596243 
-2048 1:0.827255 2:0.826961 
-2048 1:0.539347 2:0.538563 
-2048 1:0.827255 2:0.826961 
-2048 1:0.424184 2:0.423204 
-2048 1:0.251439 2:0.250165 
-2048 1:0.481765 2:0.480884 
-2048 1:0.424184 2:0.423204 
-2048 1:0.65451 2:0.653922 
-2048 1:0.251439 2:0.250165 
-2048 1:0.596929 2:0.596243 
-2048 1:0.193857 2:0.192486 
-2048 1:0.481765 2:0.480884 
-2048 1:0.251439 2:0.250165 
-2048 1:0.481765 2:0.480884 
-2048 1:0.884837 2:0.884641 
-2048 1:0.65451 2:0.653922 
-2048 1:0.712092 2:0.711602 
-2048 1:0.424184 2:0.423204 
-2048 1:0.596929 2:0.596243 
-2048 1:0.65451 2:0.653922 
-2048 1:0.769674 2:0.769282 
-2048 1:0.712092 2:0.711602 
-2048 1:0.827255 2:0.826961 
-2048 1:0.424184 2:0.423204 
-2048 1:0.596929 2:0.596243 
-2048 1:0.424184 2:0.423204 
-2048 1:0.424184 2:0.423204 
-2048 1:0.424184 2:0.423204 
-2048 1:0.65451 2:0.653922 
-2048 1:0.712092 2:0.711602 
-2048 1:0.251439 2:0.250165 
-2048 1:0.481765 2:0.480884 
-2048 1:0.65451 2:0.653922 
-2048 1:0.481765 2:0.480884 
-2048 1:0.65451 2:0.653922 
-2048 1:0.193857 2:0.192486 
-2048 1:0.712092 2:0.711602 
-2048 1:0.712092 2:0.711602 
-2048 1:0.65451 2:0.653922 
-2048 1:0.481765 2:0.480884 
-2048 1:0.712092 2:0.711602 
-2048 1:0.596929 2:0.596243 
-2048 1:0.309021 2:0.307845 
-2048 1:0.424184 2:0.423204 
-2048 1:0.712092 2:0.711602 
-2048 1:0.712092 2:0.711602 
-2048 1:0.65451 2:0.653922 
-2048 1:0.481765 2:0.480884 
-2048 1:0.309021 2:0.307845 
-2048 1:0.366602 2:0.365524 
-2048 1:0.942418 2:0.94232 
-2048 1:0.65451 2:0.653922 
-2048 1:0.539347 2:0.538563 
-2048 1:0.539347 2:0.538563 
-2048 1:0.481765 2:0.480884 
-2048 1:0.481765 2:0.480884 
-2048 1:0.424184 2:0.423204 
-2048 1:0.539347 2:0.538563 
-2048 1:0.712092 2:0.711602 
-2048 1:0.65451 2:0.653922 
-2048 1:0.596929 2:0.596243 
-2048 1:0.366602 2:0.365524 
-2048 1:0.769674 2:0.769282 
-2048 1:0.481765 2:0.480884 
-2048 1:0.193857 2:0.192486 
-2048 1:0.366602 2:0.365524 
-2048 1:0.65451 2:0.653922 
-2048 1:0.827255 2:0.826961 
-2048 1:0.884837 2:0.884641 
-2048 1:0.769674 2:0.769282 
-2048 1:0.481765 2:0.480884 
-2048 1:0.366602 2:0.365524 
-2048 1:0.827255 2:0.826961 
-2048 1:0.481765 2:0.480884 
-2048 1:0.65451 2:0.653922 
-2048 1:0.539347 2:0.538563 
-2048 1:0.884837 2:0.884641 
-2048 1:0.596929 2:0.596243 
-2048 1:0.251439 2:0.250165 
-2048 1:0.827255 2:0.826961 
-2048 1:0.712092 2:0.711602 
-2048 1:0.712092 2:0.711602 
-2048 1:0.769674 2:0.769282 
-2048 1:0.884837 2:0.884641 
-2048 1:0.309021 2:0.307845 
-2048 1:0.827255 2:0.826961 
-2048 1:0.596929 2:0.596243 
-2048 1:0.366602 2:0.365524 
-2048 1:0.827255 2:0.826961 
-2048 1:0.827255 2:0.826961 
-2048 1:0.481765 2:0.480884 
-2048 1:0.539347 2:0.538563 
-2048 1:0.366602 2:0.365524 
-2048 1:0.65451 2:0.653922 
-2048 1:0.366602 2:0.365524 
-2048 1:0.539347 2:0.538563 
-2048 1:0.424184 2:0.423204 
-2048 1:0.424184 2:0.423204 
-2048 1:0.539347 2:0.538563 
-2048 1:0.539347 2:0.538563 
-2048 1:0.539347 2:0.538563 
-2048 1:0.769674 2:0.769282 
-2048 1:0.769674 2:0.769282 
-2048 1:0.769674 2:0.769282 
-2048 1:0.309021 2:0.307845 
-2048 1:0.539347 2:0.538563 
-2048 1:0.193857 2:0.192486 
-2048 1:0.712092 2:0.711602 
-2048 1:0.481765 2:0.480884 
-2048 1:0.193857 2:0.192486 
-2048 1:0.424184 2:0.423204 
-2048 1:0.65451 2:0.653922 
-2048 1:0.309021 2:0.307845 
-2048 1:0.596929 2:0.596243 
-2048 1:0.769674 2:0.769282 
-2048 1:0.712092 2:0.711602 
-2048 1:0.65451 2:0.653922 
-2048 1:0.827255 2:0.826961 
-2048 1:0.539347 2:0.538563 
-2048 1:0.366602 2:0.365524 
-2048 1:0.827255 2:0.826961 
-2048 1:0.884837 2:0.884641 
-2048 1:0.539347 2:0.538563 
-2048 1:0.712092 2:0.711602 
-2048 1:0.596929 2:0.596243 
-2048 1:0.366602 2:0.365524 
-2048 1:0.712092 2:0.711602 
-2048 1:0.712092 2:0.711602 
-2048 1:0.769674 2:0.769282 
-2048 1:0.424184 2:0.423204 
-2048 1:0.65451 2:0.653922 
-2048 1:0.251439 2:0.250165 
-2048 1:0.827255 2:0.826961 
-2048 1:0.193857 2:0.192486 
-2048 1:0.481765 2:0.480884 
-2048 1:0.481765 2:0.480884 
-2048 1:0.769674 2:0.769282 
-2048 1:0.309021 2:0.307845 
-2048 1:0.769674 2:0.769282 
-2048 1:0.366602 2:0.365524 
-2048 1:0.942418 2:0.94232 
-2048 1:0.769674 2:0.769282 
-2048 1:0.596929 2:0.596243 
-2048 1:0.424184 2:0.423204 
-2048 1:0.712092 2:0.711602 
-2048 1:0.596929 2:0.596243 
-2048 1:0.884837 2:0.884641 
-2048 1:0.596929 2:0.596243 
-2048 1:0.596929 2:0.596243 
-2048 1:0.65451 2:0.653922 
-2048 1:0.596929 2:0.596243 
-2048 1:0.65451 2:0.653922 
-2048 1:0.596929 2:0.596243 
-2048 1:0.769674 2:0.769282 
-2048 1:0.424184 2:0.423204 
-2048 1:0.309021 2:0.307845 
-2048 1:0.481765 2:0.480884 
-2048 1:0.366602 2:0.365524 
-2048 1:0.884837 2:0.884641 
-2048 1:0.65451 2:0.653922 
-2048 1:0.65451 2:0.653922 
-2048 1:0.366602 2:0.365524 
-2048 1:0.481765 2:0.480884 
-2048 1:0.769674 2:0.769282 
-2048 1:0.539347 2:0.538563 
-2048 1:0.65451 2:0.653922 
-2048 1:0.884837 2:0.884641 
-2048 1:0.596929 2:0.596243 
-2048 1:0.827255 2:0.826961 
-2048 1:0.539347 2:0.538563 
-2048 1:0.596929 2:0.596243 
-2048 1:0.65451 2:0.653922 
-2048 1:0.65451 2:0.653922 
-2048 1:0.769674 2:0.769282 
-2048 1:0.769674 2:0.769282 
-2048 1:0.596929 2:0.596243 
-2048 1:0.251439 2:0.250165 
-2048 1:0.65451 2:0.653922 
-2048 1:0.65451 2:0.653922 
-2048 1:0.769674 2:0.769282 
-2048 1:0.827255 2:0.826961 
-2048 1:0.481765 2:0.480884 
-2048 1:0.309021 2:0.307845 
-2048 1:0.424184 2:0.423204 
-2048 1:0.65451 2:0.653922 
-2048 1:0.539347 2:0.538563 
-2048 1:0.481765 2:0.480884 
-2048 1:0.596929 2:0.596243 
-2048 1:0.712092 2:0.711602 
-2048 1:0.65451 2:0.653922 
-2048 1:0.827255 2:0.826961 
-2048 1:0.596929 2:0.596243 
-2048 1:0.539347 2:0.538563 
-2048 1:0.769674 2:0.769282 
-2048 1:0.424184 2:0.423204 
-2048 1:0.769674 2:0.769282 
-2048 1:0.596929 2:0.596243 
-2048 1:0.251439 2:0.250165 
-2048 1:0.65451 2:0.653922 
-2048 1:0.712092 2:0.711602 
-2048 1:0.712092 2:0.711602 
-2048 1:0.596929 2:0.596243 
-2048 1:0.424184 2:0.423204 
-2048 1:0.539347 2:0.538563 
-2048 1:0.366602 2:0.365524 
-2048 1:0.424184 2:0.423204 
-2048 1:0.539347 2:0.538563 
-2048 1:0.712092 2:0.711602 
-2048 1:0.481765 2:0.480884 
-2048 1:0.596929 2:0.596243 
-2048 1:0.251439 2:0.250165 
-2048 1:0.481765 2:0.480884 
-2048 1:0.481765 2:0.480884 
-2048 1:0.481765 2:0.480884 
-2048 1:0.769674 2:0.769282 
-2048 1:0.65451 2:0.653922 
-2048 1:0.65451 2:0.653922 
-2048 1:0.366602 2:0.365524 
-2048 1:0.65451 2:0.653922 
-2048 1:0.424184 2:0.423204 
-2048 1:0.539347 2:0.538563 
-2048 1:0.424184 2:0.423204 
-2048 1:0.251439 2:0.250165 
-2048 1:0.827255 2:0.826961 
-2048 1:0.366602 2:0.365524 
-2048 1:0.481765 2:0.480884 
-2048 1:0.481765 2:0.480884 
-2048 1:0.458147 2:0.446793 
-2048 1:0.769674 2:0.769282 
-2048 1:0.65451 2:0.653922 
-2048 1:0.769674 2:0.769282 
-2048 1:0.539347 2:0.538563 
-2048 1:0.596929 2:0.596243 
-2048 1:0.827255 2:0.826961 
-2048 1:0.251439 2:0.250165 
-2048 1:0.251439 2:0.250165 
-2048 1:0.193857 2:0.192486 
-2048 1:0.65451 2:0.653922 
-2048 1:0.424184 2:0.423204 
-2048 1:0.65451 2:0.653922 
-2048 1:0.539347 2:0.538563 
-2048 1:0.424184 2:0.423204 
-2048 1:0.309021 2:0.307845 
-2048 1:0.769674 2:0.769282 
-2048 1:0.769674 2:0.769282 
-2048 1:0.481765 2:0.480884 
-2048 1:0.309021 2:0.307845 
-2048 1:0.481765 2:0.480884 
-2048 1:0.539347 2:0.538563 
-2048 1:0.827255 2:0.826961 
-2048 1:0.596929 2:0.596243 
-2048 1:0.884837 2:0.884641 
-2048 1:0.424184 2:0.423204 
-2048 1:0.65451 2:0.653922 
-2048 1:0.366602 2:0.365524 
-2048 1:0.712092 2:0.711602 
-2048 1:0.481765 2:0.480884 
-2048 1:0.596929 2:0.596243 
-2048 1:0.366602 2:0.365524 
-2048 1:0.424184 2:0.423204 
-2048 1:0.769674 2:0.769282 
-2048 1:0.481765 2:0.480884 
-2048 1:0.712092 2:0.711602 
-2048 1:0.596929 2:0.596243 
-2048 1:0.481765 2:0.480884 
-2048 1:0.481765 2:0.480884 
-2048 1:0.65451 2:0.653922 
-2048 1:0.596929 2:0.596243 
-2048 1:0.539347 2:0.538563 
-2048 1:0.481765 2:0.480884 
-2048 1:0.539347 2:0.538563 
-2048 1:0.481765 2:0.480884 
-2048 1:0.424184 2:0.423204 
-2048 1:0.481765 2:0.480884 
-2048 1:0.65451 2:0.653922 
-2048 1:0.884837 2:0.884641 
-2048 1:0.65451 2:0.653922 
-2048 1:0.65451 2:0.653922 
-2048 1:0.481765 2:0.480884 
-2048 1:0.65451 2:0.653922 
-2048 1:0.424184 2:0.423204 
-2048 1:0.309021 2:0.307845 
-2048 1:0.481765 2:0.480884 
-2048 1:0.251439 2:0.250165 
-2048 1:0.712092 2:0.711602 
-2048 1:0.342984 2:0.331434 
-2048 1:0.65451 2:0.653922 
-2048 1:0.193857 2:0.192486 
-2048 1:0.65451 2:0.653922 
-2048 1:0.712092 2:0.711602 
-2048 1:0.539347 2:0.538563 
-2048 1:0.481765 2:0.480884 
-2048 1:0.596929 2:0.596243 
-2048 1:0.481765 2:0.480884 
-2048 1:0.251439 2:0.250165 
-2048 1:0.596929 2:0.596243 
-2048 1:0.712092 2:0.711602 
-2048 1:0.251439 2:0.250165 
-2048 1:0.884837 2:0.884641 
-2048 1:0.596929 2:0.596243 
-2048 1:0.65451 2:0.653922 
-2048 1:0.424184 2:0.423204 
-2048 1:0.424184 2:0.423204 
-2048 1:0.65451 2:0.653922 
-2048 1:0.596929 2:0.596243 
-2048 1:0.424184 2:0.423204 
-2048 1:0.539347 2:0.538563 
-2048 1:0.65451 2:0.653922 
-2048 1:0.481765 2:0.480884 
-2048 1:0.539347 2:0.538563 
-2048 1:0.827255 2:0.826961 
-2048 1:0.769674 2:0.769282 
-2048 1:0.366602 2:0.365524 
-2048 1:0.827255 2:0.826961 
-2048 1:0.309021 2:0.307845 
-2048 1:0.596929 2:0.596243 
-2048 1:0.424184 2:0.423204 
-2048 1:0.309021 2:0.307845 
-2048 1:0.712092 2:0.711602 
-2048 1:0.481765 2:0.480884 
-2048 1:0.251439 2:0.250165 
-2048 1:0.596929 2:0.596243 
-2048 1:0.712092 2:0.711602 
-2048 1:0.596929 2:0.596243 
-2048 1:0.539347 2:0.538563 
-2048 1:0.827255 2:0.826961 
-2048 1:0.366602 2:0.365524 
-2048 1:0.481765 2:0.480884 
-2048 1:0.712092 2:0.711602 
-2048 1:0.596929 2:0.596243 
-2048 1:0.251439 2:0.250165 
-2048 1:0.65451 2:0.653922 
-2048 1:0.596929 2:0.596243 
-2048 1:0.65451 2:0.653922 
-2048 1:0.65451 2:0.653922 
-2048 1:0.539347 2:0.538563 
-2048 1:0.539347 2:0.538563 
-2048 1:0.539347 2:0.538563 
-2048 1:0.424184 2:0.423204 
-2048 1:0.65451 2:0.653922 
-2048 1:0.596929 2:0.596243 
-2048 1:0.309021 2:0.307845 
-2048 1:0.424184 2:0.423204 
-2048 1:0.424184 2:0.423204 
-2048 1:0.366602 2:0.365524 
-2048 1:0.65451 2:0.653922 
-2048 1:0.481765 2:0.480884 
-2048 1:0.424184 2:0.423204 
-2048 1:0.481765 2:0.480884 
-2048 1:0.539347 2:0.538563 
-2048 1:0.366602 2:0.365524 
-2048 1:0.539347 2:0.538563 
-2048 1:0.424184 2:0.423204 
-2048 1:0.65451 2:0.653922 
-2048 1:0.65451 2:0.653922 
-2048 1:0.712092 2:0.711602 
-2048 1:0.366602 2:0.365524 
-2048 1:0.769674 2:0.769282 
-2048 1:0.539347 2:0.538563 
-2048 1:0.769674 2:0.769282 
-2048 1:0.539347 2:0.538563 
-2048 1:0.481765 2:0.480884 
-2048 1:0.309021 2:0.307845 
-2048 1:0.539347 2:0.538563 
-2048 1:0.596929 2:0.596243 
-2048 1:0.827255 2:0.826961 
-2048 1:0.481765 2:0.480884 
-2048 1:0.481765 2:0.480884 
-2048 1:0.251439 2:0.250165 
-2048 1:0.424184 2:0.423204 
-2048 1:0.596929 2:0.596243 
-2048 1:0.481765 2:0.480884 
-2048 1:0.712092 2:0.711602 
-2048 1:0.712092 2:0.711602 
-2048 1:0.539347 2:0.538563 
-2048 1:0.596929 2:0.596243 
-2048 1:0.366602 2:0.365524 
-2048 1:0.596929 2:0.596243 
-2048 1:0.481765 2:0.480884 
-2048 1:0.424184 2:0.423204 
-2048 1:0.424184 2:0.423204 
-2048 1:0.827255 2:0.826961 
-2048 1:0.65451 2:0.653922 
-2048 1:0.539347 2:0.538563 
-2048 1:0.481765 2:0.480884 
-2048 1:0.366602 2:0.365524 
-2048 1:0.539347 2:0.538563 
-2048 1:0.481765 2:0.480884 
-2048 1:0.596929 2:0.596243 
-2048 1:0.769674 2:0.769282 
-2048 1:0.884837 2:0.884641 
-2048 1:0.366602 2:0.365524 
-2048 1:0.481765 2:0.480884 
-2048 1:0.65451 2:0.653922 
-2048 1:0.424184 2:0.423204 
-2048 1:0.65451 2:0.653922 
-2048 1:0.539347 2:0.538563 
-2048 1:0.942418 2:0.94232 
-2048 1:0.481765 2:0.480884 
-2048 1:0.712092 2:0.711602 
-2048 1:0.712092 2:0.711602 
-2048 1:0.769674 2:0.769282 
-2048 1:0.251439 2:0.250165 
-2048 1:0.65451 2:0.653922 
-2048 1:0.539347 2:0.538563 
-2048 1:0.596929 2:0.596243 
-2048 1:0.539347 2:0.538563 
-2048 1:0.769674 2:0.769282 
-2048 1:0.481765 2:0.480884 
-2048 1:0.769674 2:0.769282 
-2048 1:0.309021 2:0.307845 
-2048 1:0.769674 2:0.769282 
-2048 1:0.712092 2:0.711602 
-2048 1:0.712092 2:0.711602 
-2048 1:0.769674 2:0.769282 
-2048 1:0.596929 2:0.596243 
-2048 1:0.366602 2:0.365524 
-2048 1:0.827255 2:0.826961 
-2048 1:0.769674 2:0.769282 
-2048 1:0.596929 2:0.596243 
-2048 1:0.65451 2:0.653922 
-2048 1:0.884837 2:0.884641 
-2048 1:0.712092 2:0.711602 
-2048 1:0.65451 2:0.653922 
-2048 1:0.65451 2:0.653922 
-2048 1:0.65451 2:0.653922 
-2048 1:0.366602 2:0.365524 
-2048 1:0.366602 2:0.365524 
-2048 1:0.515729 2:0.504473 
-2048 1:0.65451 2:0.653922 
-2048 1:0.65451 2:0.653922 
-2048 1:0.481765 2:0.480884 
-2048 1:0.712092 2:0.711602 
-2048 1:0.366602 2:0.365524 
-2048 1:0.596929 2:0.596243 
-2048 1:0.827255 2:0.826961 
-2048 1:0.712092 2:0.711602 
-2048 1:0.596929 2:0.596243 
-2048 1:0.712092 2:0.711602 
-2048 1:0.424184 2:0.423204 
-2048 1:0.424184 2:0.423204 
-2048 1:0.424184 2:0.423204 
-2048 1:0.424184 2:0.423204 
-2048 1:0.596929 2:0.596243 
-2048 1:0.424184 2:0.423204 
-2048 1:0.481765 2:0.480884 
-2048 1:0.769674 2:0.769282 
-2048 1:0.769674 2:0.769282 
-2048 1:0.481765 2:0.480884 
-2048 1:0.596929 2:0.596243 
-2048 1:0.309021 2:0.307845 
-2048 1:0.884837 2:0.884641 
-2048 1:0.769674 2:0.769282 
-2048 1:0.596929 2:0.596243 
-2048 1:0.539347 2:0.538563 
-2048 1:0.712092 2:0.711602 
-2048 1:0.712092 2:0.711602 
-2048 1:0.630892 2:0.619832 
-2048 1:0.481765 2:0.480884 
-2048 1:0.309021 2:0.307845 
-2048 1:0.309021 2:0.307845 
-2048 1:0.596929 2:0.596243 
-2048 1:0.481765 2:0.480884 
-2048 1:0.712092 2:0.711602 
-2048 1:0.65451 2:0.653922 
-2048 1:0.481765 2:0.480884 
-2048 1:0.596929 2:0.596243 
-2048 1:0.424184 2:0.423204 
-2048 1:0.65451 2:0.653922 
-2048 1:0.481765 2:0.480884 
-2048 1:0.539347 2:0.538563 
-2048 1:0.251439 2:0.250165 
-2048 1:0.65451 2:0.653922 
-2048 1:0.251439 2:0.250165 
-2048 1:0.769674 2:0.769282 
-2048 1:0.769674 2:0.769282 
-2048 1:0.366602 2:0.365524 
-2048 1:0.309021 2:0.307845 
-2048 1:0.769674 2:0.769282 
-2048 1:0.712092 2:0.711602 
-2048 1:0.481765 2:0.480884 
-2048 1:0.65451 2:0.653922 
-2048 1:0.596929 2:0.596243 
-2048 1:0.596929 2:0.596243 
-2048 1:0.827255 2:0.826961 
-2048 1:0.309021 2:0.307845 
-2048 1:0.193857 2:0.192486 
-2048 1:0.65451 2:0.653922 
-2048 1:0.424184 2:0.423204 
-2048 1:0.539347 2:0.538563 
-2048 1:0.539347 2:0.538563 
-2048 1:0.309021 2:0.307845 
-2048 1:0.712092 2:0.711602 
-2048 1:0.309021 2:0.307845 
-2048 1:0.539347 2:0.538563 
-2048 1:0.481765 2:0.480884 
-2048 1:0.596929 2:0.596243 
-2048 1:0.481765 2:0.480884 
-2048 1:0.539347 2:0.538563 
-2048 1:0.827255 2:0.826961 
-2048 1:0.596929 2:0.596243 
-2048 1:0.596929 2:0.596243 
-2048 1:0.712092 2:0.711602 
-2048 1:0.596929 2:0.596243 
-2048 1:0.596929 2:0.596243 
-2048 1:0.712092 2:0.711602 
-2048 1:0.366602 2:0.365524 
-2048 1:0.596929 2:0.596243 
-2048 1:0.827255 2:0.826961 
-2048 1:0.539347 2:0.538563 
-2048 1:0.366602 2:0.365524 
-2048 1:0.596929 2:0.596243 
-2048 1:0.769674 2:0.769282 
-2048 1:0.596929 2:0.596243 
-2048 1:0.309021 2:0.307845 
-2048 1:0.30767 2:0.303869 
-2048 1:0.539347 2:0.538563 
-2048 1:0.309021 2:0.307845 
-2048 1:0.596929 2:0.596243 
-2048 1:0.309021 2:0.307845 
-2048 1:0.769674 2:0.769282 
-2048 1:0.827255 2:0.826961 
-2048 1:0.481765 2:0.480884 
-2048 1:0.481765 2:0.480884 
-2048 1:0.827255 2:0.826961 
-2048 1:0.193857 2:0.192486 
-2048 1:0.712092 2:0.711602 
-2048 1:0.65451 2:0.653922 
-2048 1:0.366602 2:0.365524 
-2048 1:0.769674 2:0.769282 
-2048 1:0.712092 2:0.711602 
-2048 1:0.712092 2:0.711602 
-2048 1:0.481765 2:0.480884 
-2048 1:0.251439 2:0.250165 
-2048 1:0.769674 2:0.769282 
-2048 1:0.539347 2:0.538563 
-2048 1:0.366602 2:0.365524 
-2048 1:0.769674 2:0.769282 
-2048 1:0.596929 2:0.596243 
-2048 1:0.596929 2:0.596243 
-2048 1:0.712092 2:0.711602 
-2048 1:0.366602 2:0.365524 
-2048 1:0.481765 2:0.480884 
-2048 1:0.366602 2:0.365524 
-2048 1:0.596929 2:0.596243 
-2048 1:0.366602 2:0.365524 
-2048 1:0.65451 2:0.653922 
-2048 1:0.712092 2:0.711602 
-2048 1:0.712092 2:0.711602 
-2048 1:0.424184 2:0.423204 
-2048 1:0.539347 2:0.538563 
-2048 1:0.424184 2:0.423204 
-2048 1:0.539347 2:0.538563 
-2048 1:0.424184 2:0.423204 
-2048 1:0.827255 2:0.826961 
-2048 1:0.769674 2:0.769282 
-2048 1:0.712092 2:0.711602 
-2048 1:0.193857 2:0.192486 
-2048 1:0.712092 2:0.711602 
-2048 1:0.539347 2:0.538563 
-2048 1:0.539347 2:0.538563 
-2048 1:0.481765 2:0.480884 
-2048 1:0.481765 2:0.480884 
-2048 1:0.539347 2:0.538563 
-2048 1:0.424184 2:0.423204 
-2048 1:0.424184 2:0.423204 
-2048 1:0.539347 2:0.538563 
-2048 1:0.65451 2:0.653922 
-2048 1:0.65451 2:0.653922 
-2048 1:0.596929 2:0.596243 
-2048 1:0.712092 2:0.711602 
-2048 1:0.596929 2:0.596243 
-2048 1:0.539347 2:0.538563 
-2048 1:0.827255 2:0.826961 
-2048 1:0.424184 2:0.423204 
-2048 1:0.309021 2:0.307845 
-2048 1:0.596929 2:0.596243 
-2048 1:0.366602 2:0.365524 
-2048 1:0.596929 2:0.596243 
-2048 1:0.712092 2:0.711602 
-2048 1:0.539347 2:0.538563 
-2048 1:0.65451 2:0.653922 
-2048 1:0.65451 2:0.653922 
-2048 1:0.539347 2:0.538563 
-2048 1:0.596929 2:0.596243 
-2048 1:0.712092 2:0.711602 
-2048 1:0.424184 2:0.423204 
-2048 1:0.424184 2:0.423204 
-2048 1:0.827255 2:0.826961 
-2048 1:0.712092 2:0.711602 
-2048 1:0.539347 2:0.538563 
-2048 1:0.251439 2:0.250165 
-2048 1:0.596929 2:0.596243 
-2048 1:0.309021 2:0.307845 
-2048 1:0.65451 2:0.653922 
-2048 1:0.769674 2:0.769282 
-2048 1:0.539347 2:0.538563 
-2048 1:0.309021 2:0.307845 
-2048 1:0.65451 2:0.653922 
-2048 1:0.769674 2:0.769282 
-2048 1:0.827255 2:0.826961 
-2048 1:0.366602 2:0.365524 
-2048 1:0.65451 2:0.653922 
-2048 1:0.481765 2:0.480884 
-2048 1:0.366602 2:0.365524 
-2048 1:0.712092 2:0.711602 
-2048 1:0.712092 2:0.711602 
-2048 1:0.481765 2:0.480884 
-2048 1:0.366602 2:0.365524 
-2048 1:0.309021 2:0.307845 
-2048 1:0.539347 2:0.538563 
-2048 1:0.65451 2:0.653922 
-2048 1:0.251439 2:0.250165 
-2048 1:0.539347 2:0.538563 
-2048 1:0.424184 2:0.423204 
-2048 1:0.596929 2:0.596243 
-2048 1:0.539347 2:0.538563 
-2048 1:0.481765 2:0.480884 
-2048 1:0.481765 2:0.480884 
-2048 1:0.539347 2:0.538563 
-2048 1:0.712092 2:0.711602 
-2048 1:0.424184 2:0.423204 
